tree
version=v4
num_class=1
num_tree_per_iteration=1
label_index=0
max_feature_idx=167
objective=binary sigmoid:1
feature_names=F1923 F3811 F3487 F3889 F2752 F3806 F2678 F2782 F3240 F2890 F2737 F1041 F1814 F2938 F997 F2956 F3813 F3914 F1594 F2236 F3495 F2488 F120 F1936 F937 F1603 F321 F3894 F1815 F3920 F3824 F3484 F3490 F261 F427 F991 F3900 F18 F996 F2825 F1692 F2137 F531 F1597 F1954 F3043 F3805 F1642 F1746 F510 F1209 F3801 F2786 F1001 F378 F115 F3871 F1921 F1639 F373 F2645 F2686 F2735 F1015 F3887 F463 F670 F2068 F1112 F1058 F2584 F2724 F164 F2885 F1273 F3836 F3868 F3150 F3804 F274 F2282 F2489 F235 F2392 F3526 F3494 F2991 F3872 F3908 F3485 F2796 F54 F1821 F327 F2998 F3921 F465 F1705 F3798 F3348 F3642 F2883 F3891 F408 F3534 F2691 F2242 F3598 F527 F2799 F3105 F2736 F2591 F2078 F2551 F322 F2388 F2586 F2484 F3825 F2772 F3395 F2350 F1057 F3143 F1813 F3886 F951 F1381 F3643 F2082 F374 F1744 F3647 F2527 F1489 F336 F228 F2896 F2999 F366 F2122 F2077 F471 F2070 F3898 F1167 F2640 F270 F2595 F367 F1153 F156 F3287 F3704 F1707 F64 F2582 F2494 F112 F2680 F2848 F2391 F949 F1165 F3907 F3799 F3838
feature_infos=[0:527842236.10000002] [0:16409922667] [-1:570.50999999999999] [0:6] [-0.88:3.7000000000000002] [0:14152799179] [-0.91000000000000003:1626943.5900000001] [-0.93000000000000005:10.300000000000001] none [0:6618] [-0.93999999999999995:1707.5999999999999] [0:10000000] [0:168350000000] [0:11548] [0:680000] [0:11548] [0:11082420491] [0:1] [0:6614] [0:443.69] [-1:1651.45] [0:453306] [0:1] [0:0.59999999999999998] [0:9800000] [0:25020690803] [0:10.6] [-2:92] [0:169522000000] [0:14] [0:1] [-1:0.070000000000000007] [-1:0.16] [0:1] [0:18.18] [0:7211345015] [0:1] [0:1] [0:1] [-0.87:6.1299999999999999] [0:14] [0:1305648521] [0:20.960000000000001] [0:64067892617] [0:0.571428571] [0:21819] [0:29513333344] [0:1423] [0:2998] [0:14.6] [0:7687900000] [0:25636683699] [-0.93999999999999995:131903.91] [0:1] [0:6.3300000000000001] [0:1] [0:6500500000] [0:1055684472] [0:18746400000] [0:5.1699999999999999] [-0.93000000000000005:199.25] [-0.79000000000000004:1028.73] [-0.85999999999999999:12.210000000000001] [0:50000] [0:1510] [0:18.170000000000002] [0:1] [0:1] [0:7211345015] [0:7211345015] [-0.85999999999999999:11428.709999999999] [-0.89000000000000001:5.0999999999999996] [0:1] [0:6618] [0:7211344041] [-20282842662:11435816203] [0:5] none [0:2576] [0:1] [0:48] [0:300226] [0:1] [0:31] [-1:8.2899999999999991] [-1:551.23000000000002] [0:11548] [0:6500500000] [0:1] [-1:1.99] [-0.93999999999999995:6.8799999999999999] [0:1] [0:62342662127] [0:10.6] [1:11548] [0:9] [0:14.4] [0:131567000000] [0:4751] none [-1:5.8899999999999997] [0:6618] [0:6] [0:14.6] [-1:5.75] [-0.89000000000000001:75691.779999999999] [0:399.86000000000001] [-1:0.14999999999999999] [0:48.420000000000002] [-0.93999999999999995:51.5] [2:8742] [-0.81999999999999995:10.09] [-0.87:6681.3800000000001] [0:87952.5] [-0.68999999999999995:2.4500000000000002] [0:12.4] [0:78002] [-0.85999999999999999:53432.190000000002] [0:110] [0:1] [-0.93000000000000005:2.7200000000000002] none [0:447.01999999999998] [0:7211345015] [1:21819] [0:337872000000] [0:16] [0:4689276821] [0:7211344930] [-1:63.509999999999998] [0:1] [0:6.5999999999999996] [0:11193] [-1:33.850000000000001] [-0.73999999999999999:186.24000000000001] [0:7687899999] [0:3.5600000000000001] [0:1] [0:6618] [1:4041] [0:4.5999999999999996] [0:1] [0:217583.3333] [0:8.9600000000000009] [0:1] [0:57] [0:7687900000] [-0.85999999999999999:2.6699999999999999] [0:1] [-0.83999999999999997:3] [0:10.6] [0:41800000] [0:1] none [-1:450.00999999999999] [0:65983050837] [0:1] [-0.88:6.8700000000000001] [0:160000] [0:1] [-0.93000000000000005:9845.4300000000003] [0:6618] [0:18] [0:7211345015] [0:7687900000] [0:1] [59:51275028958] [-597198702.60000002:6504128801]
tree_sizes=1483 1771 1756 1778 1775 1754 1768 1786 1761 1767 1779 1770 1759 1758 1771 1757 1760 1660 1757 1765 1756 1631 1755 1754 1643 1750 1763 1741 1761 1627 1751 1750 1752 1638 1753 1757 1749 1748 1761 1752 1740 1754 1756 1755 1749 1748 1750 1753 1740 1750 1750 1734 1740 1752 1746 1746 1751 1742 1743 1755 1745 1743 1749 1746 1751 1754 1755 1746 1752 1753 1744 1754 1752 1740 1746 1760 1733 1731 1747 1744 1740 1753 1735 1735 1758 1733 1737 1731 1757 1738 1750 1753 1737 1743 1747 1749 1647 1645 1642 1643 1547 1769 1646 1643 1656 1657 1731 1640 1761 1756 1769 1734 1751 1750 1725 1746 1745 1726 1755 1749 1648 1747 1728 1647 1644 1751 1645 1732 1755 1755 1757 1754 1760 1757 1730 1752 1758 1762 1763 1753 1737 1770 1760 1758 1756 1753 1734 1751 1754 1766 1754 1757 1730 1751 1752 1749 1760 1727 1755 1752 1734 1764 1751 1745 1747 1758 1763 1756 1744 1749 1750 1752 1747 1667 1764 1753 1657 1768 1759 1764 1757 1750 1750 1766 1663 1743 1769 1768 1661 1766 1772 1751 1752 1769 1662 1771 1775 1661 1771 1768

Tree=0
num_leaves=13
num_cat=0
split_feature=145 17 57 29 134 104 1 95 123 100 0 0
split_gain=130508 109092 28820.8 23795 17105.2 16652.2 12656 11777.1 10015.6 4746.03 7.10543e-15 5.55112e-17
threshold=2.5000000000000004 1.0000000180025095e-35 25587.488870000005 1.5000000000000002 0.045000000000000005 -0.40499999999999997 82734.500000000015 7.5000000000000009 22793.500000000004 1.2550000000000001 2000210.7435000001 10833722.790000001
decision_type=2 2 2 2 2 2 2 2 2 2 2 2
left_child=1 2 5 7 -4 -1 8 -3 -2 -5 -8 -12
right_child=6 3 4 9 -6 -7 10 -9 -10 -11 11 -13
leaf_value=-4.7377198688379041 -1.486454775981517 -4.7377198688379041 -4.7377198688379041 -4.7377198688379041 -1.3995761583607931 -1.5354368906458862 -4.7377198688379041 -1.3846429616845439 -4.7377198688379041 -1.4722904169182063 -4.7377198688379041 -4.7377198688379041
leaf_weight=1.4985157987102855 2.0441746553406115 19.338834065012641 4.5132813109084955 0.46108178421854917 1.9909729110077021 59.150106894783676 32.79000842384994 0.99105297680944104 1.4630479691550133 3.0529615469276905 0.31034350860863824 0.079802616499364376
leaf_count=169 11 2181 509 52 5 414 3698 2 165 15 35 9
internal_value=-3.04605 -2.43705 -1.81809 -4.18025 -3.7159 -1.61456 -4.55656 -4.57426 -2.84273 -1.90075 -4.73772 -4.73772
internal_weight=127.684 90.9968 67.1529 23.8439 6.50425 60.6486 36.6874 20.3299 3.50722 3.51404 33.1802 0.390146
internal_count=7265 3347 1097 2250 514 583 3918 2183 176 67 3742 44
is_linear=0
shrinkage=1


Tree=1
num_leaves=15
num_cat=0
split_feature=166 152 98 165 145 17 145 17 57 104 164 29 1 0
split_gain=910.376 609.383 449.617 403.114 0.0936187 0.0962686 0.0604144 0.0645945 0.0458334 0.0279117 0.010027 0.00980163 0.00492829 8.88178e-16
threshold=8198554.8100000015 0.58500000000000008 4.5000000000000009 1.0000000180025095e-35 2.5000000000000004 1.0000000180025095e-35 2.5000000000000004 1.0000000180025095e-35 30474.936945000005 -0.40499999999999997 15000.500000000002 1.5000000000000002 915758.37500000012 33336.833330000009
decision_type=2 2 2 2 2 2 2 2 2 2 2 2 2 2
left_child=1 6 8 -4 5 9 7 -1 -3 -2 -8 -7 -6 -14
right_child=4 2 3 -5 12 11 10 -9 -10 -11 -12 -13 13 -15
leaf_value=-0.035848460561094191 -0.030262758567856558 -0.034197466916622565 0.15814441271269525 -0.035651708674362084 -0.034919919772657369 -0.030262758567856627 -0.035223946072625086 -0.03026275856785662 -0.03026275856785662 -0.036170228926374337 -0.03026275856785662 -0.035099217366618682 -0.03026275856785662 -0.030262758567856613
leaf_weight=7.9274469353258592 0.76603726670146066 7.1851610690355283 1110.4455368444324 9.7448386065661889 0.21068112924694915 4.0884011425077906 0.39554077759385009 2.4358263649046421 4.2347228676080704 11.93185801431537 5.0179744549095631 0.41544735059142102 4.6650808826088905 2.3067189604043961
leaf_count=140 89 339 3668 207 8 475 13 283 492 143 583 15 542 268
internal_value=0.148113 0.151968 0.154549 0.156459 -0.0332761 -0.0344772 -0.0331938 -0.0345356 -0.0327384 -0.0358138 -0.0306252 -0.0307089 -0.0303994 -0.0302628
internal_weight=1171.77 1147.39 1131.61 1120.19 24.3842 17.2017 15.7768 10.3633 11.4199 12.6979 5.41352 4.50385 7.18248 6.9718
internal_count=7265 5725 4706 3875 1540 722 1019 423 831 232 596 490 818 810
is_linear=0
shrinkage=0.03


Tree=2
num_leaves=15
num_cat=0
split_feature=16 58 43 38 35 98 145 145 17 57 145 104 145 164
split_gain=740.339 857.191 809.026 335.691 249.274 110.024 73.7931 0.241353 0.221201 0.0931866 0.0489544 0.0439211 0.02104 0.0146422
threshold=380751.65000000008 621378.01000000013 616476.00000000012 1.0000000180025095e-35 199999.50000000003 4.5000000000000009 1.5000000000000002 2.5000000000000004 1.0000000180025095e-35 25587.488870000005 2.5000000000000004 -0.064999999999999988 2.5000000000000004 10014.750000000002
decision_type=2 2 2 2 2 2 2 2 2 2 2 2 2 2
left_child=2 7 3 11 12 -5 -6 8 -2 10 -4 -1 -3 -11
right_child=1 4 9 5 6 -7 -8 -9 -10 13 -12 -13 -14 -15
leaf_value=-0.030283115617927993 -0.036290306729608153 -0.033199615924441761 -0.035642760712351236 -0.034115262232270092 0.13530447432459855 0.14497451654225263 -0.030868767303786213 -0.030280798478127025 -0.030571094231602924 -0.035159041768736125 -0.031147836232959962 -0.035075924142772462 -0.030278313186601753 -0.030500367783510136
leaf_weight=2.2492644898593426 29.087915320880711 5.4986009933054429 8.3128592381253856 3.0961224045604459 95.804554855450988 1092.3959576152265 2.4670490287244311 12.586363171227275 7.6968316826969376 0.6387733705341806 2.9561322201043359 7.3244999041780812 3.7200670531019568 12.279461352154611
leaf_count=245 418 362 200 146 203 996 256 1382 816 22 281 250 412 1276
internal_value=0.130683 0.0696118 0.139166 0.142923 0.11714 0.144468 0.131133 -0.0338667 -0.0350936 -0.0324699 -0.0344636 -0.0339499 -0.0320208 -0.0307307
internal_weight=1286.11 156.861 1129.25 1105.07 107.49 1095.49 98.2716 49.3711 36.7847 24.1872 11.269 9.57376 9.21867 12.9182
internal_count=7265 3849 3416 1637 1233 1142 459 2616 1234 1779 481 495 774 1298
is_linear=0
shrinkage=0.03


Tree=3
num_leaves=15
num_cat=0
split_feature=166 152 165 107 145 17 145 17 57 104 164 29 75 16
split_gain=595.34 407.619 299.594 264.909 0.0767064 0.0805119 0.0560947 0.0611513 0.0351926 0.023113 0.0108881 0.00815778 0.00410788 1.17664e-08
threshold=8198554.8100000015 0.58500000000000008 1.0000000180025095e-35 -0.11499999999999998 2.5000000000000004 1.0000000180025095e-35 2.5000000000000004 1.0000000180025095e-35 25163.168710000002 -0.40499999999999997 15000.500000000002 1.5000000000000002 557704896.25000012 508022.25500000006
decision_type=2 2 2 2 2 2 2 2 2 2 2 2 2 2
left_child=1 6 3 -3 5 9 7 -1 -4 -2 -8 -7 13 -6
right_child=4 2 8 -5 12 11 10 -9 -10 -11 -12 -13 -14 -15
leaf_value=-0.035744905658123854 -0.030250912220555291 -0.031401863897096989 -0.036013288546885486 0.12422891890180641 -0.030259871702672889 -0.03025473564105307 -0.035426758337811767 -0.030259476968813863 -0.030253199759196554 -0.035757084689595944 -0.030257479205857238 -0.034750817282703794 -0.034605638855894995 -0.0302473005001666
leaf_weight=7.7727197529748064 0.73008143529295999 9.9170584045350534 9.7583607733249647 1326.4520122231916 0.067706746980546906 3.9503192016854873 0.39642900601029296 2.3919163821265101 1.0581467635929573 11.394298822619024 4.8936005141586065 0.39997493196278799 0.20058677252382029 6.5034845033660531
leaf_count=140 89 906 120 3552 8 475 13 283 128 143 583 15 8 802
internal_value=0.117476 0.120044 0.121801 0.123074 -0.0330644 -0.0341693 -0.0331502 -0.0344541 -0.0354498 -0.0354255 -0.0306449 -0.0306681 -0.0303765 -0.0302474
internal_weight=1385.89 1362.64 1347.19 1336.37 23.2465 16.4747 15.4547 10.1646 10.8165 12.1244 5.29003 4.35029 6.77178 6.57119
internal_count=7265 5725 4706 4458 1540 722 1019 423 248 232 596 490 818 810
is_linear=0
shrinkage=0.03


Tree=4
num_leaves=15
num_cat=0
split_feature=166 152 163 165 145 17 145 17 145 104 164 29 75 16
split_gain=499.585 341.251 272.964 223.715 0.0696307 0.0728702 0.0509385 0.0554341 0.0404506 0.020905 0.00994214 0.0074564 0.00375675 1.07499e-08
threshold=8198554.8100000015 0.58500000000000008 998910.00000000012 1.0000000180025095e-35 2.5000000000000004 1.0000000180025095e-35 2.5000000000000004 1.0000000180025095e-35 2.5000000000000004 -0.40499999999999997 15000.500000000002 1.5000000000000002 557704896.25000012 508022.25500000006
decision_type=2 2 2 2 2 2 2 2 2 2 2 2 2 2
left_child=1 6 3 -3 5 9 7 -1 -4 -2 -8 -7 13 -6
right_child=4 2 8 -5 12 11 10 -9 -10 -11 -12 -13 -14 -15
leaf_value=-0.035549519157349795 -0.030243436690983408 0.11273721888828656 -0.0339325159915334 -0.035405996574442551 -0.030252126440256655 -0.030247145847345121 -0.035252798880824214 -0.030251744144762688 -0.03032438931722399 -0.035557657704502095 -0.030249806325758619 -0.034602162543254697 -0.034462443235308539 -0.030239930455292253
leaf_weight=7.583831290714441 0.70867675263434726 1416.6554504861124 7.390492264647035 9.2341405162587744 0.065722278319298222 3.8345171501860014 0.38658245746046205 2.3218089947476983 4.4986365544609725 11.118624743074182 4.7501592515036464 0.38979624398052681 0.19545513857156027 6.3127922108396888
leaf_count=140 89 3693 388 195 8 475 13 283 430 143 583 15 8 802
internal_value=0.106919 0.109097 0.110584 0.111778 -0.0329662 -0.0340312 -0.0330506 -0.0343078 -0.0325673 -0.0352392 -0.0306263 -0.030649 -0.0303656 -0.0302401
internal_weight=1475.45 1452.82 1437.78 1425.89 22.6256 16.0516 15.0424 9.90564 11.8891 11.8273 5.13674 4.22431 6.57397 6.37851
internal_count=7265 5725 4706 3888 1540 722 1019 423 818 232 596 490 818 810
is_linear=0
shrinkage=0.03


Tree=5
num_leaves=15
num_cat=0
split_feature=16 58 43 38 35 98 145 145 17 57 145 104 145 29
split_gain=429.512 615.744 550.51 223.367 168.942 75.5636 48.1037 0.280825 0.260908 0.106957 0.0613649 0.0530271 0.0238916 0.0217486
threshold=380751.65000000008 621378.01000000013 616476.00000000012 1.0000000180025095e-35 199999.50000000003 4.5000000000000009 1.5000000000000002 2.5000000000000004 1.0000000180025095e-35 25587.488870000005 2.5000000000000004 -0.064999999999999988 2.5000000000000004 1.5000000000000002
decision_type=2 2 2 2 2 2 2 2 2 2 2 2 2 2
left_child=2 7 3 11 12 -5 -6 8 -2 10 -4 -1 -3 -11
right_child=1 4 9 5 6 -7 -8 -9 -10 13 -12 -13 -14 -15
leaf_value=-0.03030598739013925 -0.036710995641346278 -0.033363266024523122 -0.036000752653657632 -0.034541810995413071 0.10227558043504816 0.10804732169534131 -0.030931335575181119 -0.030307601087988682 -0.030624738850279047 -0.030567616640448086 -0.03116989104712959 -0.03542776711998457 -0.030304864752795962 -0.036502815622988086
leaf_weight=2.3846405637450516 29.272616172675043 5.585665518883614 8.5843605431728083 3.3532817424274972 115.33788519073278 1337.3736872710288 2.4926018151454619 13.234789730515329 8.0913304369896633 13.632947835139927 3.267253376543521 7.6734844362363201 3.9065089244395494 0.57926114182919342
leaf_count=245 418 362 200 146 203 996 256 1382 816 1276 281 250 412 22
internal_value=0.0983308 0.0544671 0.103999 0.106634 0.0896495 0.107691 0.0994577 -0.0340628 -0.035393 -0.0325645 -0.034669 -0.0342135 -0.0321046 -0.0308095
internal_weight=1554.77 177.921 1376.85 1350.79 127.323 1340.73 117.83 50.5987 37.3639 26.0638 11.8516 10.0581 9.49217 14.2122
internal_count=7265 3849 3416 1637 1233 1142 459 2616 1234 1779 481 495 774 1298
is_linear=0
shrinkage=0.03


Tree=6
num_leaves=15
num_cat=0
split_feature=166 152 78 125 145 17 57 145 17 104 164 29 75 16
split_gain=373.517 261.063 217.701 174.278 0.0570669 0.0608169 0.051579 0.0471617 0.0522644 0.0172948 0.0105389 0.00620152 0.0031729 4.43996e-08
threshold=8198554.8100000015 0.58500000000000008 3.5000000000000004 8036934.4600000009 2.5000000000000004 1.0000000180025095e-35 30474.936945000005 2.5000000000000004 1.0000000180025095e-35 -0.40499999999999997 15000.500000000002 1.5000000000000002 557704896.25000012 508022.25500000006
decision_type=2 2 2 2 2 2 2 2 2 2 2 2 2 2
left_child=1 7 6 -4 5 9 -3 8 -1 -2 -9 -7 13 -6
right_child=4 2 3 -5 12 11 -8 10 -10 -11 -12 -13 -14 -15
leaf_value=-0.035454633545371261 -0.030233145260104892 -0.034372839648827987 0.095917074038935318 -0.03207636471603293 -0.030250851337481635 -0.030240428596039832 -0.030284830380945493 -0.035415540852802421 -0.030249447514046197 -0.035188208240669677 -0.030245681009944594 -0.034292208668821059 -0.034203813604802499 -0.03022581734517395
leaf_weight=7.3950686529278737 0.67430345574393946 7.6984185702167434 1564.6268567899242 9.633279871195553 0.06445293314754863 3.6953754904679945 4.3457792387343943 0.3844458875246336 2.2687223851680756 10.595548356417567 4.6143167573027313 0.37442355044186104 0.18606617674231518 5.9469786216504872
leaf_count=140 89 337 3191 703 8 475 475 13 283 143 583 15 8 802
internal_value=0.0913276 0.0929971 0.0941618 0.0951339 -0.032775 -0.0337566 -0.0328978 -0.033009 -0.0342326 -0.0348917 -0.0306433 -0.0306132 -0.0303455 -0.0302261
internal_weight=1622.5 1600.97 1586.3 1574.26 21.5371 15.3397 12.0442 14.6626 9.66379 11.2699 4.99876 4.0698 6.1975 6.01143
internal_count=7265 5725 4706 3894 1540 722 812 1019 423 232 596 490 818 810
is_linear=0
shrinkage=0.03


Tree=7
num_leaves=15
num_cat=0
split_feature=166 163 165 145 145 17 145 17 100 104 29 75 152 16
split_gain=328.364 232.666 190.447 185.529 0.0518373 0.0550973 0.0510295 0.0786009 0.0267507 0.0156588 0.00566847 0.00290121 8.29805e-06 4.0555e-08
threshold=8198554.8100000015 998910.00000000012 1.0000000180025095e-35 2.5000000000000004 2.5000000000000004 1.0000000180025095e-35 2.5000000000000004 1.0000000180025095e-35 -0.27499999999999997 -0.40499999999999997 1.5000000000000002 557704896.25000012 0.58500000000000008 508022.25500000006
decision_type=2 2 2 2 2 2 2 2 2 2 2 2 2 2
left_child=1 2 3 -1 5 9 7 -3 -4 -2 -7 13 -8 -6
right_child=4 6 8 -5 11 10 12 -9 -10 -11 -12 -13 -14 -15
leaf_value=0.090996656885008631 -0.030226202461219164 -0.036080528321845384 -0.030253879764028532 0.044141735452194804 -0.030243378846260223 -0.030233268644995835 -0.03022286606466517 -0.030322218125079181 -0.036108818839004436 -0.035011116011275087 -0.034158649590848356 -0.034073402445830313 -0.030328477811597757 -0.030219094611156471
leaf_weight=1556.8776465430856 0.65452280174940902 5.9290449125692231 0.75320946471765715 79.964525786228478 0.062563281506298973 3.5869970759376879 0.78685253346338768 3.332603040151298 10.394291910342869 10.333625303115696 0.36475691106170405 0.18124774424359191 4.4920232417061925 5.77248331066221
leaf_count=1966 89 141 93 2511 8 475 108 332 144 143 15 8 430 802
internal_value=0.0853243 0.0868119 0.087866 0.0887077 -0.0326867 -0.0336335 -0.0326668 -0.0340085 -0.0357132 -0.0347261 -0.0305956 -0.0303355 -0.0303127 -0.0302194
internal_weight=1683.49 1662.53 1647.99 1636.84 20.9562 14.9399 14.5405 9.26165 11.1475 10.9881 3.95175 6.01629 5.27888 5.83505
internal_count=7265 5725 4714 4477 1540 722 1011 473 237 232 490 818 538 810
is_linear=0
shrinkage=0.03


Tree=8
num_leaves=15
num_cat=0
split_feature=16 58 43 38 35 47 145 145 17 57 145 104 29 145
split_gain=297.601 492.501 419.406 171.576 126.342 59.2071 34.3709 0.330237 0.316221 0.126926 0.0710581 0.0652517 0.0273654 0.024682
threshold=380751.65000000008 621378.01000000013 616476.00000000012 1.0000000180025095e-35 199999.50000000003 1.5000000000000002 1.5000000000000002 2.5000000000000004 1.0000000180025095e-35 25587.488870000005 2.5000000000000004 -0.064999999999999988 1.5000000000000002 2.5000000000000004
decision_type=2 2 2 2 2 2 2 2 2 2 2 2 2 2
left_child=2 7 3 11 13 -5 -6 8 -2 10 -4 -1 -11 -3
right_child=1 4 9 5 6 -7 -8 -9 -10 12 -12 -13 -14 -15
leaf_value=-0.030330385412535934 -0.037250734086263025 -0.033436348771857582 -0.036386609658214157 -0.033810987762981908 0.083849810033839414 0.087770859964480849 -0.030857180076358175 -0.030328766821273001 -0.030681473838649356 -0.030563782162493829 -0.031301052073248521 -0.035877219218733616 -0.037055939434595356 -0.030310031098680041
leaf_weight=2.5138823967427015 29.513970253057778 5.5423352099023742 8.852295333985241 3.6134401699528089 128.23382368683815 1504.1268494422548 2.3949121390469363 13.554634859785436 8.4923549401573819 14.074090376496311 3.4311911002732804 7.9290792569518072 0.60965393995866257 3.8526491187512875
leaf_count=245 418 362 200 167 203 975 256 1382 816 1276 281 250 22 412
internal_value=0.0801842 0.0449165 0.084557 0.0866401 0.0741045 0.0874795 0.0817468 -0.0343491 -0.0357829 -0.0327158 -0.034966 -0.034542 -0.0308333 -0.0321543
internal_weight=1736.74 191.585 1545.15 1518.18 140.024 1507.74 130.629 51.561 38.0063 26.9672 12.2835 10.443 14.6837 9.39498
internal_count=7265 3849 3416 1637 1233 1142 459 2616 1234 1779 481 495 1298 774
is_linear=0
shrinkage=0.03


Tree=9
num_leaves=15
num_cat=0
split_feature=152 16 58 43 38 35 145 57 145 17 104 164 43 16
split_gain=264.535 200.663 414.021 321.913 132.357 97.3347 0.282136 0.1098 0.0593289 0.0673602 0.0194491 0.0121132 4.87705e-06 1.25007e-06
threshold=0.58500000000000008 380751.65000000008 621378.01000000013 616476.00000000012 1.0000000180025095e-35 199999.50000000003 2.5000000000000004 25587.488870000005 2.5000000000000004 1.0000000180025095e-35 -0.40499999999999997 15000.500000000002 616476.00000000012 369925.00000000006
decision_type=2 2 2 2 2 2 2 2 2 2 2 2 2 2
left_child=8 3 6 4 -2 -4 -3 -5 9 10 -1 -10 -13 -11
right_child=1 2 5 7 -6 -7 -8 -9 11 13 -12 12 -14 -15
leaf_value=-0.03023822001289397 -0.034541820205280932 -0.035873669091400315 -0.032183785149102584 -0.035084209111010844 0.082794655785574933 0.078202177790102995 -0.030336983012658601 -0.030846633234724429 -0.035606022486969355 -0.030275540426043957 -0.035600270877372255 -0.030270143579784699 -0.030215207393004366 -0.030237664869770611
leaf_weight=0.64914028299972493 8.7008088473230583 31.497053308878094 7.6006863191723815 9.9401117977686244 1546.3923082863912 132.80407103244215 11.238931889180092 12.328593496233223 0.40460924757644434 1.5235175504349165 9.7988847778178751 2.6286521786823869 3.2557630711235106 1.6162501713261006
leaf_count=86 421 1022 620 377 932 356 1108 1049 15 177 116 312 461 213
internal_value=0.0758365 0.0770652 0.0473411 0.0805164 0.0821382 0.0722265 -0.0344176 -0.0327382 -0.0329941 -0.0341092 -0.0352671 -0.030585 -0.0302397 -0.030256
internal_weight=1780.38 1760.5 183.141 1577.36 1555.09 140.405 42.736 22.2687 19.8768 13.5878 10.448 6.28902 5.88442 3.13977
internal_count=7265 5885 3106 2779 1353 976 2130 1426 1380 592 202 788 773 390
is_linear=0
shrinkage=0.03


Tree=10
num_leaves=15
num_cat=0
split_feature=152 127 45 165 57 145 17 145 17 104 164 166 43 16
split_gain=239.231 183.21 150.743 138.25 0.071551 0.0538555 0.0610647 0.0420602 0.0570985 0.0176068 0.0110737 1.10381e-05 4.455e-06 1.14183e-06
threshold=0.58500000000000008 592015.59500000009 27.500000000000004 1.0000000180025095e-35 21418.047940000004 2.5000000000000004 1.0000000180025095e-35 2.5000000000000004 1.0000000180025095e-35 -0.40499999999999997 15000.500000000002 8198554.8100000015 616476.00000000012 369925.00000000006
decision_type=2 2 2 2 2 2 2 2 2 2 2 2 2 2
left_child=5 2 4 -4 -2 6 9 8 -3 -1 -7 -9 -12 -8
right_child=1 7 3 -5 -6 10 13 11 -10 -11 12 -13 -14 -15
leaf_value=-0.030231129340487394 -0.035911776834081248 -0.035589354453765598 0.07537550872402661 -0.035583001501847504 -0.030986643107707452 -0.035429033218713324 -0.030267331301525043 -0.030317059203098434 -0.030847533745312135 -0.035408585658696444 -0.030262095682050072 -0.030207221722652975 -0.030208803129700614 -0.030230590091128974
leaf_weight=0.63010081276297647 7.3698166473768634 5.6030109706334752 1761.6210391218774 10.164502517320214 4.1494472711347044 0.39458311395719547 1.4788857558742159 4.1678376295603803 3.8599588330835104 9.5599832814186811 2.551631887909025 1.0261973286978898 3.1602004920132458 1.5688443053513763
leaf_count=86 248 144 3956 227 363 15 177 418 378 116 312 151 461 213
internal_value=0.0720385 0.0731675 0.0740357 0.074739 -0.0341377 -0.032899 -0.0339741 -0.0324645 -0.0336552 -0.0350884 -0.0305684 -0.0302954 -0.0302326 -0.0302484
internal_weight=1817.31 1797.96 1783.3 1771.79 11.5193 19.3442 13.2378 14.657 9.46297 10.1901 6.10642 5.19403 5.71183 3.04773
internal_count=7265 5885 4794 4183 611 1380 592 1091 522 202 788 569 773 390
is_linear=0
shrinkage=0.03


Tree=11
num_leaves=15
num_cat=0
split_feature=166 78 152 24 57 145 145 17 145 104 95 29 1 152
split_gain=226.246 167.29 145.905 122.636 0.0651889 0.0499849 0.0389615 0.0420003 0.0351603 0.0119519 0.00703858 0.00530016 0.00382913 3.30159e-07
threshold=8198554.8100000015 3.5000000000000004 0.58500000000000008 100500.00000000001 15920.063065000002 2.5000000000000004 2.5000000000000004 1.0000000180025095e-35 2.5000000000000004 -0.40499999999999997 7.5000000000000009 1.5000000000000002 88129.985000000015 0.58500000000000008
decision_type=2 2 2 2 2 2 2 2 2 2 2 2 2 2
left_child=1 4 8 -4 5 -1 7 9 -3 -2 -6 -9 -8 -14
right_child=6 2 3 -5 10 -7 12 11 -10 -11 -12 -13 13 -15
leaf_value=-0.036107839708257781 -0.030216629774020221 -0.034127896371087353 0.071747954203895306 -0.036116292212259662 -0.030594640732768224 -0.030314572541528972 -0.035423363083266865 -0.030232695186081595 -0.030711939468068345 -0.034532784757649447 -0.037079094729538825 -0.034066960111513715 -0.030194525012392077 -0.030212142633065028
leaf_weight=6.1929762484505755 0.61437657708302218 8.110080396756528 1795.1968407956883 9.5369134438224119 6.1003154115751386 1.7106505390256641 0.12966126203536887 3.4762313421815629 4.0742439217865458 9.5966009148396552 0.15446883440017689 0.35786689072847355 1.2281650076620279 4.3416591500863433
leaf_count=146 89 348 3491 403 653 177 1 475 506 143 1 15 192 625
internal_value=0.0685898 0.069679 0.0704794 0.071178 -0.0330431 -0.034854 -0.0324189 -0.0332678 -0.0329857 -0.0342731 -0.0307548 -0.0305906 -0.0303269 -0.0302083
internal_weight=1850.82 1831.08 1816.92 1804.73 14.1584 7.90363 19.7446 14.0451 12.1843 10.211 6.25478 3.8341 5.69949 5.56982
internal_count=7265 5725 4748 3894 977 323 1540 722 854 232 654 490 818 817
is_linear=0
shrinkage=0.03


Tree=12
num_leaves=15
num_cat=0
split_feature=166 145 57 165 98 0 1 145 17 104 104 29 1 152
split_gain=206.486 165.309 249.427 147.186 103.382 34.6012 0.0779797 0.0354278 0.0380915 0.0272148 0.0108347 0.00484409 0.00347821 3.01582e-07
threshold=8198554.8100000015 2.5000000000000004 2890.8308785000004 1.0000000180025095e-35 4.5000000000000009 1987.372642 35447.500000000007 2.5000000000000004 1.0000000180025095e-35 -0.33499999999999996 -0.40499999999999997 1.5000000000000002 88129.985000000015 0.58500000000000008
decision_type=2 2 2 2 2 2 2 2 2 2 2 2 2 2
left_child=1 3 5 4 -1 -3 -4 8 10 -5 -2 -10 -9 -14
right_child=7 2 6 9 -6 -7 -8 12 11 -11 -12 -13 13 -15
leaf_value=-0.034034865195042376 -0.030210185415237248 -0.032685667893332812 -0.0371665525394805 -0.030249934183945153 0.069840950296193471 0.073652618496863914 -0.030478933231628088 -0.035234613116922817 -0.030225771311789391 -0.036149932210828399 -0.034380828063798607 -0.033940549527942628 -0.030188739000402011 -0.03020582975743042
leaf_weight=8.6658447701483947 0.59634427120909173 2.9032417004927984 1.6387637970037747 0.75025346130132753 1743.8544504274614 53.550174362026155 36.972187301609665 0.12649305164813895 3.3742543607950206 11.322287621907886 9.353517453186214 0.34856426436454047 1.1920922268182037 4.2142110429704189
leaf_count=513 89 164 61 98 1878 9 2866 1 475 136 143 15 192 625
internal_value=0.0655214 0.0665321 0.0279961 0.0686082 0.0693273 0.0681839 -0.0307628 -0.0323426 -0.0331623 -0.0357833 -0.0341309 -0.0305736 -0.0303171 -0.0302021
internal_weight=1878.86 1859.66 95.0644 1764.59 1752.52 56.4534 38.611 19.2055 13.6727 12.0725 9.94986 3.72282 5.5328 5.4063
internal_count=7265 5725 3100 2625 2391 173 2927 1540 722 234 232 490 818 817
is_linear=0
shrinkage=0.03


Tree=13
num_leaves=15
num_cat=0
split_feature=1 58 97 35 38 74 84 145 17 57 145 100 145 61
split_gain=193.326 396.675 296.155 122.333 113.435 49.1512 33.2013 0.441385 0.451619 0.206325 0.116867 0.0848096 0.0429675 0.0276615
threshold=614727.40500000014 447853.16000000009 978943.16500000015 199999.50000000003 1.0000000180025095e-35 99999.49500000001 -0.77499999999999991 2.5000000000000004 1.0000000180025095e-35 25587.488870000005 2.5000000000000004 0.51500000000000012 2.5000000000000004 7.3700000000000001
decision_type=2 2 2 2 2 2 2 2 2 2 2 2 2 2
left_child=2 7 4 12 11 -6 -5 8 -2 10 -4 -1 -3 -11
right_child=1 3 9 6 5 -7 -8 -9 -10 13 -12 -13 -14 -15
leaf_value=-0.031223772548000288 -0.0383932946276659 -0.033936320627408006 -0.037755243306485442 -0.032979824045596039 0.069473372348788032 0.035744170195276891 0.066788939444091935 -0.030369802783304169 -0.030774153241737059 -0.030584380645238503 -0.031339172909782234 -0.037038067706546593 -0.030321229690358976 -0.041763438281766083
leaf_weight=3.6376634831540269 29.901471873745322 7.5632876255549473 9.7316198074258882 3.0569509589113286 1588.7847635415383 39.858889475464821 166.95254535693675 13.814475678838788 9.1424747891724092 12.907115355134007 3.4646660564467302 5.9524100972339511 4.8606289681047201 0.20233130455017168
leaf_count=301 415 452 199 222 669 390 346 1364 822 1132 263 166 523 1
internal_value=0.0628406 0.0373868 0.0664386 0.058354 0.0680421 0.0686479 0.064995 -0.0349785 -0.0366092 -0.0334226 -0.0360707 -0.0348326 -0.032522 -0.0307569
internal_weight=1899.83 235.292 1664.54 182.433 1638.23 1628.64 170.009 52.8584 39.0439 26.3057 13.1963 9.59007 12.4239 13.1094
internal_count=7265 4144 3121 1543 1526 1059 568 2601 1237 1595 462 467 975 1133
is_linear=0
shrinkage=0.03


Tree=14
num_leaves=15
num_cat=0
split_feature=163 84 152 45 57 145 17 145 164 50 105 134 1 38
split_gain=177.002 144.547 124.135 110.186 0.0601008 0.0519516 0.0477257 0.0349761 0.0303398 0.0468824 0.0165924 0.0136046 0.00135955 1.01003e-05
threshold=998910.00000000012 0.47500000000000003 0.58500000000000008 27.500000000000004 21038.484845000003 2.5000000000000004 1.0000000180025095e-35 2.5000000000000004 35070.06500000001 7120.5000000000009 -0.67499999999999993 0.87000000000000011 49382.000000000007 1.0000000180025095e-35
decision_type=2 2 2 2 2 2 2 2 2 2 2 2 2 2
left_child=1 2 7 -4 5 6 -2 -1 9 -3 -10 12 -6 -7
right_child=4 8 3 -5 11 13 -8 -9 10 -11 -12 -13 -14 -15
leaf_value=-0.034127867168033822 -0.036327654434500971 -0.033237373180025148 -0.035109040422059562 0.063262491375345176 -0.032667355669643204 -0.030253677577932195 -0.030313681220741226 -0.030590670284666204 -0.038867230272947681 -0.047162438308569206 -0.030860456905952738 -0.038055024178159404 -0.030294010669895375 -0.030387440152157892
leaf_weight=8.708131577819584 6.5833435277454573 1.7007784359157074 10.304575794376431 1859.1948345853016 0.22393908258527417 1.7922260900959366 1.448998146690428 3.5381256304681292 0.23726373445242543 0.24952401127666224 12.771141223143784 0.21295543154701579 7.2493885043077171 0.7090507000684737
leaf_count=365 82 94 484 3410 15 229 162 491 3 3 1008 5 847 67
internal_value=0.0604643 0.0613582 0.0620966 0.0627203 -0.0325952 -0.0340671 -0.0352428 -0.0331059 -0.0315296 -0.035019 -0.0310065 -0.0305782 -0.0303651 -0.0302916
internal_weight=1914.92 1896.7 1881.75 1869.5 18.2199 10.5336 8.03234 12.2463 14.9587 1.9503 13.0084 7.68628 7.47333 2.50128
internal_count=7265 5858 4750 3894 1407 540 244 856 1108 97 1011 867 862 296
is_linear=0
shrinkage=0.03


Tree=15
num_leaves=15
num_cat=0
split_feature=1 58 97 35 38 74 145 145 17 57 145 100 145 61
split_gain=169.466 361.188 264.848 110.425 100.896 45.6162 29.4903 0.449674 0.457407 0.206928 0.118327 0.0830043 0.0438441 0.0292517
threshold=614727.40500000014 447853.16000000009 978943.16500000015 199999.50000000003 1.0000000180025095e-35 99999.49500000001 1.5000000000000002 2.5000000000000004 1.0000000180025095e-35 25587.488870000005 2.5000000000000004 0.51500000000000012 2.5000000000000004 7.3700000000000001
decision_type=2 2 2 2 2 2 2 2 2 2 2 2 2 2
left_child=2 7 4 12 11 -6 -5 8 -2 10 -4 -1 -3 -11
right_child=1 3 9 6 5 -7 -8 -9 -10 13 -12 -13 -14 -15
leaf_value=-0.031221155576043165 -0.038499452433547389 -0.033987753398068636 -0.037816465981925416 0.062095998907437409 0.064382305940329718 0.032248097778967998 -0.03081316615675346 -0.030372671211955686 -0.030799581750898371 -0.030574627991346009 -0.031332676799710822 -0.037031353053283568 -0.030324876645142409 -0.042019082220230201
leaf_weight=3.550061069428919 29.626821731682867 7.4770921408198756 9.6056581907905656 169.10896300710738 1615.5376241132617 40.761265792883933 3.1316561857238403 13.713529745582489 9.0689503517933172 12.760196721646931 3.4405459845438591 5.8750606668181717 4.8480770592577755 0.20422054827213365
leaf_count=301 415 452 199 239 669 390 329 1364 822 1132 263 166 523 1
internal_value=0.058223 0.0344631 0.0615512 0.0541994 0.0630345 0.0635915 0.0604067 -0.0350406 -0.0366949 -0.0334391 -0.0361066 -0.0348429 -0.032547 -0.0307549
internal_weight=1928.71 236.975 1691.73 184.566 1665.72 1656.3 172.241 52.4093 38.6958 26.0106 13.0462 9.42512 12.3252 12.9644
internal_count=7265 4144 3121 1543 1526 1059 568 2601 1237 1595 462 467 975 1133
is_linear=0
shrinkage=0.03


Tree=16
num_leaves=15
num_cat=0
split_feature=166 145 57 165 98 0 136 57 104 145 17 1 122 152
split_gain=157.536 129.162 203.017 117.517 81.7962 28.7605 0.0943422 0.0270492 0.0263929 0.0234267 0.0164963 0.00302349 0.00183133 2.88098e-07
threshold=8198554.8100000015 2.5000000000000004 2890.8308785000004 1.0000000180025095e-35 4.5000000000000009 1987.372642 2.2350000000000008 25587.488870000005 -0.33499999999999996 2.5000000000000004 1.0000000180025095e-35 158740.55000000002 4.9000000000000012 0.58500000000000008
decision_type=2 2 2 2 2 2 2 2 2 2 2 2 2 2
left_child=1 3 5 4 -1 -3 -4 9 -5 10 -2 -9 -13 -11
right_child=7 2 6 8 -6 -7 -8 11 -10 13 -12 12 -14 -15
leaf_value=-0.034277909835278383 -0.034058740889121461 -0.032733979480777095 -0.030644639051484499 -0.030251232135502983 0.059939937373350259 0.063241709514740826 -0.045572188373169835 -0.035064023795177396 -0.036166596400425757 -0.030167793702989273 -0.030620755563914432 -0.030208815408992801 -0.033008301258311133 -0.030193811342144439
leaf_weight=8.3313121399842185 8.5379738551564515 2.9603298525325945 37.541971980594099 0.72350543225184161 1801.1709954738617 55.35906536784023 0.38494811672717233 0.12356442958116431 10.995535740628835 0.48647434450685922 1.4727626000531024 5.329162307549268 0.21894655190408219 1.8015761435963211
leaf_count=513 121 164 2914 98 1878 9 13 1 136 88 214 819 12 285
internal_value=0.0562744 0.0571029 0.023233 0.0588929 0.0595061 0.0583699 -0.0307961 -0.0321366 -0.0358014 -0.032927 -0.033553 -0.0304227 -0.0303193 -0.0301883
internal_weight=1935.44 1917.47 96.2463 1821.22 1809.5 58.3194 37.9269 17.9705 11.719 12.2988 10.0107 5.67167 5.54811 2.28805
internal_count=7265 5725 3100 2625 2391 173 2927 1540 234 708 335 832 831 373
is_linear=0
shrinkage=0.03


Tree=17
num_leaves=14
num_cat=0
split_feature=152 0 165 24 29 145 17 16 1 13 13 23 16
split_gain=148.614 127.46 108.361 95.8523 0.0422779 0.0406271 0.0507552 0.0239767 0.0142725 0.010239 0.00578868 0.00183948 3.27934e-06
threshold=0.58500000000000008 61508.529240000011 1.0000000180025095e-35 100500.00000000001 2.5000000000000004 2.5000000000000004 1.0000000180025095e-35 258626.00000000003 309515.01000000007 1173.5000000000002 1.5000000000000002 0.14738475150000005 369925.00000000006
decision_type=2 2 2 2 2 2 2 2 2 2 2 2 2
left_child=5 2 3 -2 10 6 8 -4 -1 11 -3 -7 -8
right_child=1 4 7 -5 -6 9 12 -9 -10 -11 -12 -13 -14
leaf_value=-0.036738263511723761 0.056990182342486727 -0.034762803927962167 -0.036878238131628223 -0.036801347771094672 -0.039160876934929194 -0.030201419407752023 -0.030280557646633139 -0.03414792658610992 -0.034085054887650804 -0.037599913267322337 -0.030443240863561094 -0.033943423689741944 -0.030216762663434434
leaf_weight=2.4867381169460732 1885.5727436589077 0.28468132391571721 5.5251157688908261 9.8578553912229818 0.52852437971159894 4.8762607891112557 1.4828704260289662 6.0803642817772925 6.8544180048629642 0.17872723611071695 14.54717714525759 0.12116834335029114 1.4193131369538603
leaf_count=37 3807 13 95 487 14 782 177 157 165 3 1312 3 213
internal_value=0.0544591 0.0552495 0.0559428 0.0565024 -0.0308233 -0.0327727 -0.0337147 -0.0354478 -0.0347914 -0.0305445 -0.0305262 -0.0302921 -0.0302494
internal_weight=1939.82 1922.4 1907.04 1895.43 15.3604 17.4195 12.2433 11.6055 9.34116 5.17616 14.8319 4.99743 2.90218
internal_count=7265 5885 4546 4294 1339 1380 592 252 202 788 1325 785 390
is_linear=0
shrinkage=0.03


Tree=18
num_leaves=15
num_cat=0
split_feature=16 58 43 38 104 35 84 145 17 57 145 104 29 29
split_gain=145.4 300.484 235.529 94.3951 75.0284 70.4525 21.2973 0.41622 0.429028 0.149283 0.0849619 0.0728474 0.0405294 0.0275999
threshold=380751.65000000008 621378.01000000013 616476.00000000012 1.0000000180025095e-35 -0.16499999999999998 199999.50000000003 -0.77499999999999991 2.5000000000000004 1.0000000180025095e-35 25587.488870000005 2.5000000000000004 -0.064999999999999988 1.5000000000000002 2.5000000000000004
decision_type=2 2 2 2 2 2 2 2 2 2 2 2 2 2
left_child=2 7 3 11 -5 13 -7 8 -2 10 -4 -1 -11 -3
right_child=1 5 9 4 -6 6 -8 -9 -10 12 -12 -13 -14 -15
leaf_value=-0.030336844111290888 -0.038398231291244617 -0.031847364908387799 -0.036926369856227388 -0.032013930574338441 0.057901389649477136 -0.033616942756694343 0.056170161247043743 -0.030332993963523576 -0.030842262131211762 -0.030531977736483057 -0.031299643290688073 -0.036344453543310277 -0.038217705949973826 -0.038706972318798792
leaf_weight=2.3841274115256965 28.510115593671799 8.3423825078643823 8.7928459639661032 8.3935677534900588 1694.7070889044553 2.4181676008738568 141.73617552686483 12.773569520562885 8.8664150834083539 13.9030048106797 3.3298524986021212 7.6309056435711664 0.64620949886739332 0.56356054032221514
leaf_count=245 418 763 200 373 769 173 286 1382 816 1276 281 250 22 11
internal_value=0.0527362 0.0287234 0.0555409 0.0569182 0.0574583 0.049605 0.054664 -0.0350081 -0.0366058 -0.032922 -0.0353808 -0.0349143 -0.0308733 -0.0322814
internal_weight=1943 203.21 1739.79 1713.12 1703.1 153.06 144.154 50.1501 37.3765 26.6719 12.1227 10.015 14.5492 8.90594
internal_count=7265 3849 3416 1637 1142 1233 459 2616 1234 1779 481 495 1298 774
is_linear=0
shrinkage=0.03


Tree=19
num_leaves=15
num_cat=0
split_feature=163 84 129 165 93 57 158 164 50 30 118 105 57 134
split_gain=135.635 111.749 101.926 90.1963 0.221947 0.0585437 0.078954 0.0298042 0.0489743 0.0293256 0.0273383 0.0207686 0.0169418 0.0144898
threshold=998910.00000000012 0.47500000000000003 2.9800000000000009 1.0000000180025095e-35 1.9650000000000001 7688.2500280000013 3.3350000000000004 35070.06500000001 7120.5000000000009 0.67098000000000013 9.0300000000000029 -0.77499999999999991 24251.864585000003 0.87000000000000011
decision_type=2 2 2 2 2 2 2 2 2 2 2 2 2 2
left_child=1 2 3 -1 -4 6 10 8 -3 -8 -2 -9 -7 -14
right_child=5 7 4 -5 -6 12 9 11 -10 -11 -12 -13 13 -15
leaf_value=0.053639913603286259 -0.032664973592197902 -0.033119299073754396 -0.035699792460758752 -0.035420905584315203 -0.049110636957593184 -0.032793335455517825 -0.035369294300166047 -0.040701998542949355 -0.04740369641619633 -0.045571716093854076 -0.043676482386533752 -0.030803789114849316 -0.030297184099743062 -0.038257961506701021
leaf_weight=1886.433283326216 3.5885148211382361 1.6331271077506233 10.059242076706139 10.290115416981278 1.248507723212241 5.2668266654945892 0.37618319690227486 0.19380040466785331 0.24894480453804124 0.77788521768525243 0.21508017182350148 12.246674119494854 6.7646530484780669 0.21223170123994339
leaf_count=4059 227 94 437 239 15 312 15 1 3 13 1 1010 834 5
internal_value=0.0512442 0.0519947 0.0526214 0.0531567 -0.0371805 -0.0326226 -0.035373 -0.0314903 -0.0350087 -0.0422461 -0.0332876 -0.030958 -0.0315089 -0.0305393
internal_weight=1939.56 1922.35 1908.03 1896.72 11.3077 17.2014 4.95766 14.3225 1.88207 1.15407 3.80359 12.4405 12.2437 6.97688
internal_count=7265 5858 4750 4298 452 1407 256 1108 97 28 228 1011 1151 839
is_linear=0
shrinkage=0.03


Tree=20
num_leaves=15
num_cat=0
split_feature=1 58 97 35 38 74 84 145 17 57 145 100 145 61
split_gain=133.062 300.327 214.543 89.151 81.1336 42.2106 24.2043 0.50048 0.5423 0.230884 0.134466 0.0904351 0.0457229 0.0367049
threshold=614727.40500000014 447853.16000000009 978943.16500000015 199999.50000000003 1.0000000180025095e-35 99999.49500000001 -0.77499999999999991 2.5000000000000004 1.0000000180025095e-35 25587.488870000005 2.5000000000000004 0.51500000000000012 2.5000000000000004 7.3700000000000001
decision_type=2 2 2 2 2 2 2 2 2 2 2 2 2 2
left_child=2 7 4 12 11 -6 -5 8 -2 10 -4 -1 -3 -11
right_child=1 3 9 6 5 -7 -8 -9 -10 13 -12 -13 -14 -15
leaf_value=-0.031145822923601667 -0.039159208739268134 -0.034124003479357908 -0.038320253817027479 -0.033185316092457694 0.055266135945637167 0.024803044964958918 0.053544683304635105 -0.030372707818976875 -0.030834515117284501 -0.030563380328155681 -0.031379679094670286 -0.037302309441009478 -0.030316026668826518 -0.043155354115170179
leaf_weight=3.4332082062028331 28.920283796265721 7.3266192357987148 9.5014180927537399 2.9464215068146578 1624.8529125661589 41.995050072669983 169.18144827801734 13.285076535306869 9.3100262586958689 12.3717967569828 3.4152761884033671 5.7337554921396077 4.6319432058371603 0.21191143989563066
leaf_count=301 415 452 199 222 669 390 346 1364 822 1132 263 166 523 1
internal_value=0.0497694 0.0286394 0.0526951 0.0465572 0.0540091 0.0544986 0.0520601 -0.0353888 -0.0371319 -0.0336675 -0.0364851 -0.0349966 -0.032649 -0.0307754
internal_weight=1937.12 235.602 1701.52 184.086 1676.01 1666.85 172.128 51.5154 38.2303 25.5004 12.9167 9.16696 11.9586 12.5837
internal_count=7265 4144 3121 1543 1526 1059 568 2601 1237 1595 462 467 975 1133
is_linear=0
shrinkage=0.03


Tree=21
num_leaves=14
num_cat=0
split_feature=145 57 165 24 152 0 41 136 164 16 1 43 57
split_gain=127.67 179.463 104.523 78.5796 69.6058 26.1979 0.205186 0.139811 0.0605038 0.0306666 0.026902 0.0242084 0.00573776
threshold=2.5000000000000004 2890.8308785000004 1.0000000180025095e-35 100500.00000000001 0.58500000000000008 1987.372642 2686.3085015000001 2.2350000000000008 23890.000000000004 258626.00000000003 35447.500000000007 592712.78000000014 22832.583135000004
decision_type=2 2 2 2 2 2 2 2 2 2 2 2 2
left_child=2 5 3 4 -1 8 -5 10 -2 11 -3 -4 -11
right_child=1 7 9 6 -6 -7 -8 -9 -10 12 -12 -13 -14
leaf_value=-0.033744122390678574 -0.041466740990508164 -0.034589430569618516 -0.037672637391327236 -0.048863483733808132 0.051761151401558805 0.054861591552132785 -0.035798340076958736 -0.048812235050333809 -0.030637137262621884 -0.033859786327751704 -0.030499412395929529 -0.033651665353689152 -0.03125590849884486
leaf_weight=8.6095084482803923 0.56015138281509225 1.5002001980319608 4.392737730406223 1.2582011953927557 1796.786309142597 55.12242499133572 7.7179746218025684 0.38462581112980743 2.7133971978910267 5.6317721367813647 41.093920563347638 1.943870097864419 0.8807390728034078
leaf_count=481 10 60 54 18 2181 11 363 13 186 80 3638 65 105
internal_value=0.0484913 0.0157213 0.0503094 0.0509132 0.0513534 0.0499648 -0.0376297 -0.0308061 -0.0324902 -0.0349533 -0.0306435 -0.0364391 -0.0335076
internal_weight=1928.6 101.375 1827.22 1814.37 1805.4 58.396 8.97618 42.9787 3.27355 12.8491 42.5941 6.33661 6.51251
internal_count=7265 3918 3347 3043 2662 207 381 3711 196 304 3698 119 185
is_linear=0
shrinkage=0.03


Tree=22
num_leaves=15
num_cat=0
split_feature=16 58 43 104 125 98 35 145 17 57 145 29 24 123
split_gain=120.85 258.935 198.936 81.8682 59.8721 39.194 28.7762 0.402532 0.439219 0.144119 0.0816932 0.043737 0.0365888 0.0312678
threshold=380751.65000000008 621378.01000000013 616476.00000000012 -0.16499999999999998 8036934.4600000009 4.5000000000000009 199999.50000000003 2.5000000000000004 1.0000000180025095e-35 25587.488870000005 2.5000000000000004 1.5000000000000002 319000.00000000006 25207.000000000004
decision_type=2 2 2 2 2 2 2 2 2 2 2 2 2 2
left_child=2 7 3 13 6 -5 -3 8 -2 10 -4 -11 -6 -1
right_child=1 4 9 5 12 -7 -8 -9 -10 11 -12 -13 -14 -15
leaf_value=-0.035780374478903178 -0.038505922650623255 -0.032582755167602062 -0.036922548039005389 -0.037835089656502792 -0.031270825145736647 0.051842782268460785 0.051478561713136757 -0.030316203092513649 -0.030829517785798045 -0.030519838992321038 -0.03127132335920231 -0.038494662537247641 -0.037555684363952083 -0.031003818704431425
leaf_weight=1.4225497343577433 27.735703605692834 3.7649910948239258 8.5209743576124328 4.3977123526856294 7.7386067621409875 1679.4145966344513 138.12008028756827 11.993872008286415 8.8483059923164529 13.426950049586591 3.1544812750071278 0.64885059697553593 0.93433554330840696 9.2770354142412526
leaf_count=46 418 297 200 134 724 889 174 1382 816 1276 281 22 38 568
internal_value=0.0472641 0.025139 0.0498253 0.0510829 0.0445706 0.0516086 0.049248 -0.0350856 -0.0366493 -0.0329315 -0.0353957 -0.0308875 -0.0319479 -0.0316389
internal_weight=1919.4 199.136 1720.26 1694.51 150.558 1683.81 141.885 48.5779 36.584 25.7513 11.6755 14.0758 8.67294 10.6996
internal_count=7265 3849 3416 1637 1233 1023 471 2616 1234 1779 481 1298 762 614
is_linear=0
shrinkage=0.03


Tree=23
num_leaves=15
num_cat=0
split_feature=69 60 57 65 10 14 7 145 17 41 46 71 57 43
split_gain=113.704 305.778 167.391 107.983 63.7379 40.9104 3.08307 0.621325 0.852314 0.590187 0.518385 0.239941 0.231171 0.000371033
threshold=90037.535000000018 -0.25499999999999995 19554.196930000002 1.3250000000000004 -0.53499999999999992 16.000000000000004 0.015000000000000001 2.5000000000000004 1.0000000180025095e-35 6375.0512780000008 373360.50000000006 -0.77499999999999991 6353.6751785000006 622976.44000000006
decision_type=2 2 2 2 2 2 2 2 2 2 2 2 2 2
left_child=2 3 4 12 10 -6 -5 8 -3 -4 -1 -11 -2 -9
right_child=1 7 9 6 5 -7 -8 13 -10 11 -12 -13 -14 -15
leaf_value=-0.05531163854864226 -0.04111447777426748 -0.040884073044270712 -0.063849954484701127 0.041351345058244851 -0.036648838778126122 0.050839069922293659 0.051808347478647439 -0.030570968429753053 -0.031586805392104039 -0.059455738069970544 -0.037836485029515247 -0.032594739591274062 -0.033103844383492009 -0.030294717354507301
leaf_weight=2.6126897670328608 5.0946958800777784 22.91073760855943 0.57262304518372076 29.9776392406784 4.8248043647035948 1609.4932193798013 165.28406669292599 9.1617779405787605 14.484771335497497 0.30367548344657436 3.6790568269789219 20.756869890727099 8.9167345529422146 8.3761933324858528
leaf_count=44 136 438 7 163 159 1115 90 749 1148 7 125 1466 603 1015
internal_value=0.0461609 0.0278949 0.0490996 0.0444303 0.0502062 0.0505776 0.0502029 -0.0350979 -0.0372829 -0.0337991 -0.0450932 -0.0329821 -0.0360166 -0.030439
internal_weight=1906.45 264.207 1642.24 209.273 1620.61 1614.32 195.262 54.9335 37.3955 21.6332 6.29175 21.0605 14.0114 17.538
internal_count=7265 4342 2923 992 1443 1274 253 3350 1586 1480 169 1473 739 1764
is_linear=0
shrinkage=0.03


Tree=24
num_leaves=14
num_cat=0
split_feature=145 57 165 166 98 0 136 164 16 43 1 17 57
split_gain=109.32 158.543 91.7985 68.6939 61.5464 23.4151 0.160156 0.0559578 0.0354733 0.0260769 0.0245711 0.0226253 0.00462154
threshold=2.5000000000000004 2890.8308785000004 1.0000000180025095e-35 8198554.8100000015 4.5000000000000009 1987.372642 2.2350000000000008 23890.000000000004 258626.00000000003 592712.78000000014 35447.500000000007 1.0000000180025095e-35 22832.583135000004
decision_type=2 2 2 2 2 2 2 2 2 2 2 2 2
left_child=2 5 3 4 -1 7 10 -2 9 -4 -3 -5 -10
right_child=1 6 8 11 -6 -7 -8 -9 12 -11 -12 -13 -14
leaf_value=-0.034948469438774707 -0.041141901106413546 -0.034464612969423589 -0.037753491547814072 -0.033618608151174151 0.048190568851752276 0.051190163154063273 -0.050322847726505096 -0.030641823314727281 -0.033583827989442254 -0.033498883213464475 -0.03049574365330622 -0.030562971486957802 -0.031145750971448411
leaf_weight=8.0503231922630203 0.55250526079907958 1.456232571043073 4.3474654061719757 6.2827132632955891 1763.6597694158554 54.041585494764149 0.37544254353269835 2.6368227400816977 5.2911882093176246 1.8474825620651243 39.059955234639347 3.3404396967962384 0.80637515033595253
leaf_count=513 10 60 54 164 1878 11 13 186 80 65 3638 488 105
internal_value=0.045128 0.0142946 0.0468148 0.0473786 0.0478128 0.0465285 -0.0308191 -0.0324608 -0.0348858 -0.0364847 -0.0306384 -0.0325579 -0.0332614
internal_weight=1891.75 98.1225 1793.63 1781.33 1771.71 57.2309 40.8916 3.18933 12.2925 6.19495 40.5162 9.62315 6.09756
internal_count=7265 3918 3347 3043 2391 207 3711 196 304 119 3698 652 185
is_linear=0
shrinkage=0.03


Tree=25
num_leaves=15
num_cat=0
split_feature=1 58 74 104 35 45 84 6 70 145 17 41 62 1
split_gain=106.131 253.393 182.265 78.757 72.1591 34.8274 19.8968 0.505717 0.501066 0.491902 0.581451 0.337344 0.0462332 0.0445446
threshold=614727.40500000014 447853.16000000009 199980.50000000003 -0.16499999999999998 199999.50000000003 27.500000000000004 -0.77499999999999991 1.5050000000000001 0.045000000000000005 2.5000000000000004 1.0000000180025095e-35 7401.0936450000008 -0.47499999999999992 77711.000000000015
decision_type=2 2 2 2 2 2 2 2 2 2 2 2 2 2
left_child=2 9 3 13 12 -5 -6 11 -9 10 -2 -4 -3 -1
right_child=1 4 7 5 6 -7 -8 8 -10 -11 -12 -13 -14 -15
leaf_value=-0.036122389150986679 -0.039542851306579564 -0.040764324718386508 -0.039390981122035519 -0.040562423268861982 -0.033203709017479474 0.048719809551707814 0.047802290497473435 -0.031635071089521113 -0.065660516109236525 -0.03033646921830464 -0.030858674257090712 -0.031879307759528755 -0.032230650257919262 -0.031033127307728132
leaf_weight=1.8617482306435693 27.779872446786612 0.60441972129046817 10.341886538546538 3.941788154654204 2.7752461847849181 1612.5432001645677 163.46978255547583 0.62901994958519836 1.0230302638374267 11.784761402755974 9.249384618829934 11.216546788811682 10.452329095918683 9.1802712506614608
leaf_count=65 415 20 315 119 222 1041 346 37 7 1364 822 898 955 639
internal_value=0.0441259 0.0248507 0.0467662 0.0479567 0.0415143 0.0485021 0.04645 -0.0367086 -0.0527053 -0.0356747 -0.0373737 -0.0354828 -0.0326971 -0.0318912
internal_weight=1876.85 226.116 1650.74 1627.53 177.302 1616.48 166.245 23.2105 1.65205 48.814 37.0293 21.5584 11.0567 11.042
internal_count=7265 4144 3121 1864 1543 1160 568 1257 44 2601 1237 1213 975 704
is_linear=0
shrinkage=0.03


Tree=26
num_leaves=15
num_cat=0
split_feature=152 107 129 111 93 104 0 46 145 17 1 13 123 43
split_gain=100.574 89.0334 76.6953 71.4468 0.318599 0.148169 0.0991963 0.0446727 0.034166 0.0449279 0.0308996 0.0115 0.000817983 6.68082e-06
threshold=0.58500000000000008 -0.11499999999999998 2.9800000000000009 0.20500000000000004 1.9650000000000001 0.51500000000000012 3177.6436435000005 121911.38000000002 2.5000000000000004 1.0000000180025095e-35 269850.50000000006 1173.5000000000002 649.00000000000011 605274.50000000012
decision_type=2 2 2 2 2 2 2 2 2 2 2 2 2 2
left_child=8 5 3 -3 -4 7 -7 -2 9 10 -1 12 -10 -11
right_child=1 2 4 -5 -6 6 -8 -9 11 13 -12 -13 -14 -15
leaf_value=-0.037788108560681592 -0.03650223892389589 0.04533009912818748 -0.035577132494269685 -0.036218875849794559 -0.051988914468108785 -0.047270274911887455 -0.031287258742548466 -0.030524610079623309 -0.032974762096401961 -0.030300963743611194 -0.033643646224815256 -0.037967207657615548 -0.030190057948667557 -0.030205590593072536
leaf_weight=2.1957179903984052 1.2533386554568995 1809.6262430332135 9.0136833654250932 9.7210846224334073 1.2071436550468195 0.91707758884876855 0.56465723738074303 11.004957871977238 0.097098941449074938 1.253590963315218 6.1646254207007587 0.18110805796459306 4.2609877453651279 1.3984320550225673
leaf_count=33 53 3808 430 442 14 6 38 1094 3 161 169 3 782 229
internal_value=0.0432217 0.0438626 0.044434 0.0448944 -0.0375155 -0.0322189 -0.0411795 -0.0311358 -0.0327501 -0.0336529 -0.0347321 -0.0305599 -0.0302521 -0.0302507
internal_weight=1858.86 1843.31 1829.57 1819.35 10.2208 13.74 1.48173 12.2583 15.5516 11.0124 8.36034 4.53919 4.35809 2.65202
internal_count=7265 5885 4694 4250 444 1191 44 1147 1380 592 202 788 785 390
is_linear=0
shrinkage=0.03


Tree=27
num_leaves=15
num_cat=0
split_feature=69 34 57 60 10 87 7 41 41 145 46 144 71 131
split_gain=99.864 269.84 149.024 93.4734 58.3448 38.7227 3.58342 0.689618 0.67914 0.672243 0.588271 0.279947 0.243079 0.138163
threshold=90037.535000000018 1.3450000000000004 19554.196930000002 -0.25499999999999995 -0.53499999999999992 365307.09000000003 0.015000000000000001 6375.0512780000008 9186.8278845000023 2.5000000000000004 373360.50000000006 0.98437500000000011 -0.77499999999999991 2.3550000000000004
decision_type=2 2 2 2 2 2 2 2 2 2 2 2 2 2
left_child=2 8 4 6 10 -6 -3 -4 9 -2 -1 -5 -9 -10
right_child=1 3 7 11 5 -7 -8 12 13 -11 -12 -13 -14 -15
leaf_value=-0.05702270704454214 -0.041861221732084085 0.036460542720064368 -0.066737550158761871 -0.035554922633970996 0.047289145191584704 0.017606698648274601 0.047854019065397761 -0.059952254290219067 -0.031890343327243394 -0.03053193573699766 -0.038212505624279039 -0.067336165740746995 -0.03270664094146699 -0.049152804207580905
leaf_weight=2.5759869236499062 18.340706870425496 29.423524144338444 0.56361886765808122 13.059067167108875 1519.8797455835156 40.612650877796113 159.63675166713074 0.29905367852189257 27.999461356783289 6.3442500727251163 3.5702589356806129 0.25430392753332931 20.296728112269189 0.42359547782689233
leaf_count=44 408 151 7 713 858 416 85 7 2392 570 125 2 1466 21
internal_value=0.0422842 0.0248762 0.0450852 0.0406704 0.0461533 0.0465166 0.0460808 -0.0339982 -0.0353092 -0.0389495 -0.0460962 -0.036162 -0.0331023 -0.0321476
internal_weight=1843.28 255.482 1587.8 202.374 1566.64 1560.49 189.06 21.1594 53.108 24.685 6.14625 13.3134 20.5958 28.4231
internal_count=7265 4342 2923 951 1443 1274 236 1480 3391 978 169 715 1473 2413
is_linear=0
shrinkage=0.03


Tree=28
num_leaves=15
num_cat=0
split_feature=1 58 155 38 35 104 62 145 17 57 145 104 61 62
split_gain=96.2621 232.233 165.309 66.3098 64.9792 52.4893 18.3571 0.48132 0.571255 0.253559 0.176501 0.0879125 0.0412548 0.039318
threshold=614727.40500000014 447853.16000000009 456242.32000000007 1.0000000180025095e-35 199999.50000000003 -0.16499999999999998 -0.024999999999999998 2.5000000000000004 1.0000000180025095e-35 25587.488870000005 2.5000000000000004 0.26500000000000007 7.3700000000000001 -0.47499999999999992
decision_type=2 2 2 2 2 2 2 2 2 2 2 2 2 2
left_child=2 7 3 11 13 -5 -6 8 -2 10 -4 -1 -11 -3
right_child=1 4 9 5 6 -7 -8 -9 -10 12 -12 -13 -14 -15
leaf_value=-0.031157129921861947 -0.039536594205585807 -0.040229910414323521 -0.038931117368502029 -0.032282936024814912 -0.031248156246003616 0.04607647753331847 0.0452244574822349 -0.030333639804275055 -0.030805490212013138 -0.030546869742149999 -0.030502979059019941 -0.037493474829896914 -0.043789108699232984 -0.032198855381237138
leaf_weight=2.8834998335223627 27.28202047990635 0.5802406664006402 9.5277730296365934 7.7316988443490109 2.8764522022102019 1562.3708466964308 158.28151294076815 11.498607396380974 8.9589607689995301 11.414702083449807 2.922138044377788 6.2251459781546146 0.21573729813098985 10.074585964437572
leaf_count=289 415 20 200 362 223 704 345 1364 822 1107 258 200 1 955
internal_value=0.0414817 0.0228518 0.0440329 0.0452224 0.0391157 0.0456906 0.0438595 -0.0356815 -0.0373782 -0.0339775 -0.0369529 -0.0354876 -0.0307925 -0.0326362
internal_weight=1822.84 219.552 1603.29 1579.21 171.813 1570.1 161.158 47.7396 36.241 24.0804 12.4499 9.10865 11.6304 10.6548
internal_count=7265 4144 3121 1555 1543 1066 568 2601 1237 1566 458 489 1108 975
is_linear=0
shrinkage=0.03


Tree=29
num_leaves=14
num_cat=0
split_feature=145 57 165 24 45 0 41 136 16 164 43 1 57
split_gain=93.1927 134.54 77.9978 60.8579 55.5955 20.3463 0.286205 0.21695 0.0435772 0.0422112 0.0279135 0.0201364 0.00353858
threshold=2.5000000000000004 2890.8308785000004 1.0000000180025095e-35 100500.00000000001 27.500000000000004 1987.372642 2686.3085015000001 2.2350000000000008 258626.00000000003 23890.000000000004 592712.78000000014 35447.500000000007 22832.583135000004
decision_type=2 2 2 2 2 2 2 2 2 2 2 2 2
left_child=2 5 3 4 -1 9 -5 11 10 -2 -4 -3 -10
right_child=1 7 8 6 -6 -7 -8 -9 12 -11 -12 -13 -14
leaf_value=-0.037160976575765531 -0.039865507650990173 -0.034141789947208991 -0.037979235549888773 -0.05139294281362352 0.043632705381668267 0.046620287533642821 -0.035777597023220392 -0.053954472250671529 -0.033284770983250438 -0.030669843702190929 -0.033515250556324795 -0.030512568027697227 -0.031058683178803764
leaf_weight=7.7004100582562378 0.54412518022581879 1.428599694976582 4.2602579037193191 1.2419260984752307 1679.633911134908 51.260381628759205 7.070256978739053 0.36277269851416249 4.9005249307956547 2.5770544884726405 1.790565348928794 37.321624423144385 0.73967075371183444
leaf_count=367 10 60 54 18 2295 11 363 13 80 186 65 3638 105
internal_value=0.0407356 0.011572 0.0423327 0.0428651 0.043264 0.0420923 -0.0381107 -0.0308625 -0.0348899 -0.032273 -0.0366582 -0.0306464 -0.0329928
internal_weight=1800.83 93.4946 1707.34 1695.65 1687.33 54.3816 8.31218 39.113 11.691 3.12118 6.05082 38.7502 5.6402
internal_count=7265 3918 3347 3043 2662 207 381 3711 304 196 119 3698 185
is_linear=0
shrinkage=0.03


Tree=30
num_leaves=15
num_cat=0
split_feature=16 58 127 104 125 78 35 6 12 145 17 57 1 24
split_gain=90.2981 202.869 154.528 73.7104 45.8604 34.3193 21.2891 0.749313 0.503595 0.379728 0.451425 0.304633 0.036135 0.033682
threshold=380751.65000000008 621378.01000000013 100000.03500000002 -0.16499999999999998 8036934.4600000009 3.5000000000000004 199999.50000000003 1.5050000000000001 310681.50000000006 2.5000000000000004 1.0000000180025095e-35 6353.6751785000006 77711.000000000015 319000.00000000006
decision_type=2 2 2 2 2 2 2 2 2 2 2 2 2 2
left_child=2 9 3 12 6 -5 -3 11 -9 10 -2 -4 -1 -6
right_child=1 4 7 5 13 -7 -8 8 -10 -11 -12 -13 -14 -15
leaf_value=-0.035586241915371304 -0.038769278673998299 -0.032642520822877837 -0.04057643017753166 -0.037169538892724723 -0.031223515855840329 0.04417008827932456 0.044241437293508344 -0.065521400285988893 -0.031557528599888092 -0.03028085797185371 -0.030779110846997845 -0.032784512467227842 -0.030990750866312328 -0.037437169201002991
leaf_weight=1.8250444901641447 26.200733155710623 3.3261125986464313 6.9548716985154959 4.6825182563625267 7.0711965779773882 1558.5973398918286 127.21881615952589 1.3135866834782053 0.56058238679543126 10.357154872268437 8.4053328395821136 12.876253710361196 9.8580678203143162 0.88320227130316187
leaf_count=64 418 297 211 179 724 1154 174 13 36 1382 816 1027 732 38
internal_value=0.0399794 0.0200466 0.0422698 0.0433654 0.0380213 0.0439265 0.0422825 -0.0372307 -0.0553625 -0.0353203 -0.0368286 -0.0355172 -0.0317086 -0.0319134
internal_weight=1780.13 183.463 1596.67 1574.96 138.499 1563.28 130.545 21.7053 1.87417 44.9632 34.6061 19.8311 11.6831 7.9544
internal_count=7265 3849 3416 2129 1233 1333 471 1287 49 2616 1234 1238 796 762
is_linear=0
shrinkage=0.03


Tree=31
num_leaves=15
num_cat=0
split_feature=69 34 57 6 10 87 84 41 41 46 145 163 71 131
split_gain=86.8329 236.781 130.639 82.8104 53.8344 36.3425 18.9827 0.791035 0.687556 0.654916 0.647351 0.319548 0.290745 0.122023
threshold=90037.535000000018 1.3450000000000004 19554.196930000002 -0.24499999999999997 -0.53499999999999992 365307.09000000003 -0.80499999999999994 6375.0512780000008 9186.8278845000023 373360.50000000006 2.5000000000000004 34881.000000000007 -0.77499999999999991 2.3550000000000004
decision_type=2 2 2 2 2 2 2 2 2 2 2 2 2 2
left_child=2 8 4 6 9 -6 -3 -4 10 -1 -2 -5 -9 -10
right_child=1 3 7 11 5 -7 -8 12 13 -11 -12 -13 -14 -15
leaf_value=-0.05866045125785592 -0.042024593377884702 -0.036838924047117673 -0.069467049164882902 -0.05820515548345858 0.044128423853846431 0.014981182408141846 0.044124361828787623 -0.062874315005512216 -0.031848432853340637 -0.038524837653136398 -0.030524635669212135 -0.035744255164779422 -0.032653633766626382 -0.048360380363578544
leaf_weight=2.5339535553939632 17.555220979498703 2.6450730985961846 0.55373249109834688 0.59866647701710363 1448.2247900119983 39.551552925724536 177.77356555848382 0.29085497604683652 26.346613414585594 3.4103786288760602 5.8813637753482899 11.932072904193772 19.198488491587337 0.4090505528729399
leaf_count=44 408 92 7 10 858 416 164 7 2392 125 570 685 1466 21
internal_value=0.0392997 0.0226584 0.0419727 0.0377579 0.0429936 0.0433536 0.0429374 -0.0341092 -0.0353871 -0.0471083 -0.0391387 -0.0368173 -0.0331046 -0.0321009
internal_weight=1756.91 243.142 1513.76 192.949 1493.72 1487.78 180.419 20.0431 50.1922 5.94433 23.4366 12.5307 19.4893 26.7557
internal_count=7265 4342 2923 951 1443 1274 256 1480 3391 169 978 695 1473 2413
is_linear=0
shrinkage=0.03


Tree=32
num_leaves=15
num_cat=0
split_feature=1 58 155 163 44 35 84 126 145 17 57 145 62 61
split_gain=83.2442 205.167 146.876 58.4076 91.6002 55.9783 16.201 12.9429 0.429557 0.529139 0.262234 0.175771 0.0385848 0.0352582
threshold=614727.40500000014 447853.16000000009 456242.32000000007 100000.03500000002 0.060661764500000007 199999.50000000003 -0.77499999999999991 13.500000000000002 2.5000000000000004 1.0000000180025095e-35 25587.488870000005 2.5000000000000004 -0.47499999999999992 7.3700000000000001
decision_type=2 2 2 2 2 2 2 2 2 2 2 2 2 2
left_child=2 8 3 7 -5 12 -7 -1 9 -2 11 -4 -3 -12
right_child=1 5 10 4 -6 6 -8 -9 -10 -11 13 -13 -14 -15
leaf_value=0.02415123939270342 -0.039361754172969582 -0.040175269246192913 -0.039122492043348979 -0.039938300549160415 0.046196579598575399 -0.033238650346823315 0.042333445319310083 0.043701523485174622 -0.03031066904410493 -0.030791666063679404 -0.030511717814103001 -0.030490592514762126 -0.032086596077461012 -0.042913643979884238
leaf_weight=31.142574184108526 26.164663350442424 0.56274005793966253 9.3577948515303451 19.697401278652251 25.492587829940021 2.5971973265986881 150.25224365899339 1425.3725815629587 10.484557821648194 8.6201767784077656 10.700522657716643 2.7462052828632286 9.3416235996410233 0.21036781370639879
leaf_count=181 415 20 200 784 11 222 346 579 1364 822 1107 258 955 1
internal_value=0.0386599 0.0208578 0.0410887 0.0422414 0.00865213 0.0365707 0.0410493 0.0432835 -0.0356336 -0.037238 -0.0341237 -0.0371641 -0.0325462 -0.0307508
internal_weight=1732.74 208.023 1524.72 1501.71 45.19 162.754 152.849 1456.52 45.2694 34.7848 23.0149 12.104 9.90436 10.9109
internal_count=7265 4144 3121 1555 795 1543 568 760 2601 1237 1566 458 975 1108
is_linear=0
shrinkage=0.03


Tree=33
num_leaves=14
num_cat=0
split_feature=145 57 165 111 45 0 164 136 16 164 55 1 57
split_gain=81.1874 117.755 67.5523 52.9198 51.3033 18.3731 0.631583 0.259019 0.0475556 0.042211 0.0337821 0.0191863 0.00258411
threshold=2.5000000000000004 2890.8308785000004 1.0000000180025095e-35 0.20500000000000004 27.500000000000004 1987.372642 10014.750000000002 2.2350000000000008 258626.00000000003 23890.000000000004 0.37500000000000006 35447.500000000007 22832.583135000004
decision_type=2 2 2 2 2 2 2 2 2 2 2 2 2
left_child=2 5 3 4 -1 9 -5 11 10 -2 -4 -3 -10
right_child=1 7 8 6 -6 -7 -8 -9 12 -11 -12 -13 -14
leaf_value=-0.037128248388047 -0.039901377156564506 -0.034110823933234551 -0.043076681604654457 -0.070860471481513726 0.040850130920797027 0.043841218013309209 -0.035265818291296047 -0.056555543558503507 -0.032933119255014284 -0.030693508846821829 -0.035826848609469004 -0.030520092611140345 -0.030925690656912593
leaf_weight=7.6298345648683599 0.54693622887134496 1.3924148720689107 0.65161424432880988 0.47756105032749374 1592.7073327479884 48.431654128711671 7.4097403036430478 0.35090161999687453 4.4497107320930809 2.4789002761244774 5.1525543234311044 35.086532623507082 0.66313755488954473
leaf_count=422 10 60 9 3 2322 11 296 13 80 186 110 3638 105
internal_value=0.0380639 0.0100491 0.0395914 0.0400963 0.0404784 0.0393605 -0.037421 -0.0309039 -0.0347824 -0.0323579 -0.0366408 -0.0306572 -0.0326728
internal_weight=1707.43 88.2873 1619.14 1608.22 1600.34 51.4575 7.8873 36.8298 10.917 3.02584 5.80417 36.4789 5.11285
internal_count=7265 3918 3347 3043 2744 207 299 3711 304 196 119 3698 185
is_linear=0
shrinkage=0.03


Tree=34
num_leaves=15
num_cat=0
split_feature=81 148 148 145 79 74 23 104 117 145 46 117 145 6
split_gain=79.1334 177.381 172.019 116.237 68.9084 4.20917 22.6583 7.06275 0.839389 0.659622 0.632155 0.753601 0.47524 0.353601
threshold=1.0750000000000004 0.47500000000000003 0.45500000000000007 1.5000000000000002 0.31500000000000006 199999.45000000004 0.11715686300000001 -0.40499999999999997 -0.52499999999999991 2.5000000000000004 171119.00000000003 -0.31499999999999995 2.5000000000000004 5.6250000000000009
decision_type=2 2 2 2 2 2 2 2 2 2 2 2 2 2
left_child=1 10 3 4 -2 7 -7 -3 -4 -10 11 -1 -5 -12
right_child=2 5 8 12 -6 6 -8 -9 9 -11 13 -13 -14 -15
leaf_value=-0.07002263603896175 0.037890061647210101 -0.030558399561810681 -0.066891007939661698 -0.042275701747238721 -0.038491237577973667 -0.036428798291115429 0.042492007573972666 0.043347427069860167 -0.040733624388631859 -0.03102512718882916 -0.035311205802706379 -0.039277385555175515 -0.031064947553642346 -0.055401653919106515
leaf_weight=1.1339080717880281 383.33506254642271 1.1648974225390691 0.94175908761098881 4.133222631178799 10.933364568045361 3.8177305236458805 22.991012573242188 1180.2487251630519 23.748028586618602 8.5718862779904139 21.006462730001662 1.9538732611108596 19.267806275514886 0.81920350180007417
leaf_count=23 1281 103 7 102 488 189 1 256 667 779 1144 81 2129 15
internal_value=0.0374414 0.041374 0.0266874 0.0319163 0.0357719 0.0430078 0.0312532 0.0432746 -0.0389723 -0.0381587 -0.0378627 -0.0505678 -0.0330451 -0.0360653
internal_weight=1684.07 1233.14 450.931 417.669 394.268 1208.22 26.8087 1181.41 33.2617 32.3199 24.9134 3.08778 23.401 21.8257
internal_count=7265 1812 5453 4000 1769 549 190 359 1453 1446 1263 104 2231 1159
is_linear=0
shrinkage=0.03


Tree=35
num_leaves=15
num_cat=0
split_feature=16 58 43 38 104 125 35 145 17 57 39 123 24 29
split_gain=76.7595 174.637 131.607 55.1314 43.7923 39.3352 17.9162 0.3219 0.405025 0.152455 0.104745 0.0914643 0.0339774 0.0328059
threshold=380751.65000000008 621378.01000000013 616476.00000000012 1.0000000180025095e-35 -0.16499999999999998 8036934.4600000009 199999.50000000003 2.5000000000000004 1.0000000180025095e-35 25587.488870000005 -0.35499999999999993 15000.500000000002 319000.00000000006 1.5000000000000002
decision_type=2 2 2 2 2 2 2 2 2 2 2 2 2 2
left_child=2 7 3 11 -5 6 -3 8 -2 10 -4 -1 -7 -11
right_child=1 5 9 4 -6 12 -8 -9 -10 13 -12 -13 -14 -15
leaf_value=-0.041840309697170022 -0.038496685742001879 -0.032714612913326349 -0.034958240640938852 -0.032050952772823528 0.0410075715986878 -0.031156369927615737 0.041154558304918785 -0.030251787088907363 -0.0307291395080878 -0.030438480565352477 -0.046780044480166712 -0.033976658700394291 -0.037534027214611305 -0.037725013166888262
leaf_weight=1.6454822565428893 24.931256918469444 3.0308698967564842 9.9032957998570055 7.4219364905729881 1448.9448889694177 6.5630817380733779 118.0888209247496 9.1454901604447496 7.9740372097585341 11.139432587195184 0.72384493378922421 6.9699363231193274 0.84907597163692106 0.58532019285485226
leaf_count=27 418 297 474 373 769 724 174 1382 816 1276 7 468 38 22
internal_value=0.0368992 0.0178384 0.0390853 0.0401876 0.0406353 0.0352005 0.0393061 -0.0352306 -0.0366144 -0.033161 -0.0357635 -0.0354786 -0.0318869 -0.0308022
internal_weight=1657.92 170.583 1487.33 1464.98 1456.37 128.532 121.12 42.0508 32.9053 22.3519 10.6271 8.61542 7.41216 11.7248
internal_count=7265 3849 3416 1637 1142 1233 471 2616 1234 1779 481 495 762 1298
is_linear=0
shrinkage=0.03


Tree=36
num_leaves=15
num_cat=0
split_feature=81 148 148 145 27 119 159 47 117 6 46 117 145 6
split_gain=74.8843 166.541 161.059 108.091 64.1777 3.92509 38.8391 4.79871 0.798466 0.633046 0.611305 0.720073 0.441627 0.350213
threshold=1.0750000000000004 0.47500000000000003 0.45500000000000007 1.5000000000000002 43.500000000000007 0.45374750000000003 0.31500000000000006 1.5000000000000002 -0.52499999999999991 1.5050000000000001 171119.00000000003 -0.31499999999999995 2.5000000000000004 5.6250000000000009
decision_type=2 2 2 2 2 2 2 2 2 2 2 2 2 2
left_child=1 10 3 4 -2 6 -3 -7 -4 -10 11 -1 -5 -12
right_child=2 5 8 12 -6 7 -8 -9 9 -11 13 -13 -14 -15
leaf_value=-0.06951698506201201 0.036768816639641787 0.043098561375064688 -0.066119573313997787 -0.042108101257166471 -0.035980637662274044 -0.032310231010045945 -0.037898442676105711 0.042304520235286663 -0.037080919349678214 -0.056516238968382385 -0.035267972292379317 -0.03918677043445748 -0.031086678734221072 -0.055423409117817832
leaf_weight=1.1227713096886875 371.99755193199962 46.847494125366211 0.94101379346102376 3.9743472533300546 11.243429867550729 0.77628278150223096 6.011873706476762 1116.1459848112427 29.59972050529905 1.5893091112375248 20.246977968839932 1.8909506904892648 18.517404998419806 0.80678831273689766
leaf_count=23 1172 2 7 102 597 57 250 240 1408 38 1144 81 2129 15
internal_value=0.0363753 0.0402674 0.0257632 0.0308833 0.0346345 0.0418746 0.0338865 0.0422527 -0.0388928 -0.0380713 -0.0378493 -0.0504864 -0.0330342 -0.0360403
internal_weight=1631.71 1193.85 437.863 405.733 383.241 1169.78 52.8594 1116.92 32.13 31.189 24.0675 3.01372 22.4918 21.0538
internal_count=7265 1812 5453 4000 1769 549 252 297 1453 1446 1263 104 2231 1159
is_linear=0
shrinkage=0.03


Tree=37
num_leaves=15
num_cat=0
split_feature=81 148 148 145 79 74 23 101 145 17 46 117 145 6
split_gain=72.7065 159.505 154.041 103.131 63.6708 3.83814 20.9499 6.36149 0.710792 1.078 0.551243 0.622578 0.407933 0.317517
threshold=1.0750000000000004 0.47500000000000003 0.45500000000000007 1.5000000000000002 0.31500000000000006 199999.45000000004 0.11715686300000001 10.500000000000002 2.5000000000000004 1.0000000180025095e-35 171119.00000000003 -0.31499999999999995 2.5000000000000004 5.6250000000000009
decision_type=2 2 2 2 2 2 2 2 2 2 2 2 2 2
left_child=1 10 3 4 -2 7 -7 -3 9 -4 11 -1 -5 -12
right_child=2 5 8 12 -6 6 -8 -9 -10 -11 13 -13 -14 -15
leaf_value=-0.067346685947464041 0.036120580569484938 -0.054420256014188463 -0.045577270402521394 -0.041789106929357153 -0.038564196093305449 -0.03638179655560652 0.041013676957038794 0.0416541095424902 -0.030973641410098833 -0.031533331080790254 -0.035166059640657069 -0.039018534468549138 -0.031069965969469687 -0.054490640599907776
leaf_weight=1.1241601638030263 367.79851321829483 0.6206207035575052 16.298169575631626 3.8858834488783058 10.568708736216648 3.6800985338632044 21.757816314697266 1123.5972436061129 7.993629340780898 7.0455014314502469 19.70467516081408 1.8428578914608831 17.979653836460784 0.79614274040795763
leaf_count=23 1281 19 238 102 488 189 1 340 782 433 1144 81 2129 15
internal_value=0.0358867 0.0397598 0.0253584 0.0303736 0.0340345 0.0413403 0.0298169 0.0416011 -0.0386947 -0.0413386 -0.0376657 -0.0497517 -0.0329749 -0.0359165
internal_weight=1604.69 1173.12 431.57 400.233 378.367 1149.66 25.4379 1124.22 31.3373 23.3437 23.4678 2.96702 21.8655 20.5008
internal_count=7265 1812 5453 4000 1769 549 190 359 1453 671 1263 104 2231 1159
is_linear=0
shrinkage=0.03


Tree=38
num_leaves=15
num_cat=0
split_feature=152 107 129 13 150 104 0 43 140 46 166 60 5 145
split_gain=71.0013 59.9672 55.9956 50.9278 0.409563 0.146842 0.0894022 0.0470577 0.0439739 0.0339507 0.0192243 0.019321 0.013059 0.0112988
threshold=0.58500000000000008 -0.11499999999999998 2.9800000000000009 48.500000000000007 1.7450000000000003 0.51500000000000012 3177.6436435000005 57291.500000000007 0.85500000000000009 121911.38000000002 271502.50000000006 -0.16499999999999998 21787.500000000004 2.5000000000000004
decision_type=2 2 2 2 2 2 2 2 2 2 2 2 2 2
left_child=7 5 3 -3 -4 9 -7 8 -1 -2 11 -9 -10 -12
right_child=1 2 4 -5 -6 6 -8 10 12 -11 13 -13 -14 -15
leaf_value=-0.045612485336589431 -0.036026701823032595 0.037343348913111966 -0.035990776381154853 -0.037506753124385429 -0.058732650588630357 -0.046972507592339258 -0.031119541948636604 -0.037643547398118461 -0.039133274025506745 -0.030467854070092715 -0.032418159621157377 -0.031241420907918149 -0.032074881037713547 -0.030155401185369808
leaf_weight=0.46557481167837877 1.1117054342757899 1535.5411547746044 8.2561300387605989 8.2249380117282254 0.78004376008175391 0.91531198192387708 0.49239338492043316 1.1067532030865548 0.36108719883486606 8.9463671685662103 7.5605329640675318 0.68797130952589114 0.6804887899197638 2.6936931782402098
leaf_count=4 53 3884 429 366 15 6 38 48 3 1094 511 95 52 667
internal_value=0.0354115 0.036004 0.0365087 0.0369446 -0.037954 -0.0323524 -0.0414274 -0.0329502 -0.0379479 -0.0310823 -0.0323251 -0.0351894 -0.0345218 -0.0318238
internal_weight=1577.82 1564.27 1552.8 1543.77 9.03617 11.4658 1.40771 13.5561 1.50715 10.0581 12.049 1.79472 1.04158 10.2542
internal_count=7265 5885 4694 4250 444 1191 44 1380 59 1147 1321 143 55 1178
is_linear=0
shrinkage=0.03


Tree=39
num_leaves=15
num_cat=0
split_feature=81 148 148 145 27 119 159 100 145 17 46 117 145 6
split_gain=71.7474 152.734 146.583 97.7257 60.5611 4.002 37.2881 4.72876 0.682704 1.03436 0.53075 0.583145 0.393384 0.307997
threshold=1.0750000000000004 0.47500000000000003 0.45500000000000007 1.5000000000000002 43.500000000000007 0.45374750000000003 0.31500000000000006 -0.38499999999999995 2.5000000000000004 1.0000000180025095e-35 171119.00000000003 -0.31499999999999995 2.5000000000000004 5.6250000000000009
decision_type=2 2 2 2 2 2 2 2 2 2 2 2 2 2
left_child=1 10 3 4 -2 6 -3 -7 9 -4 11 -1 -5 -12
right_child=2 5 8 12 -6 7 -8 -9 -10 -11 13 -13 -14 -15
leaf_value=-0.066581293261377753 0.035046471766829776 0.041593561293383027 -0.045343294345791221 -0.041678547245005387 -0.03606218821158623 -0.030436490543742031 -0.038023762794439642 0.040823521618973117 -0.03094511755583159 -0.031495082344637944 -0.035146014973752207 -0.039003010118569013 -0.031070422241020135 -0.054235876315139341
leaf_weight=1.1197841644752773 357.03191219968721 44.518402099609375 16.111102302791558 3.8297097571194199 11.114883513655512 0.83876683353446324 6.0087283207103601 1059.8665908449329 7.8856320476625106 6.947652605129405 19.351247532060373 1.7981472159735883 17.62707352405414 0.79176978045143087
leaf_count=23 1172 2 238 102 597 85 250 212 782 433 1144 81 2129 15
internal_value=0.0348644 0.0387884 0.0242807 0.0292723 0.0328996 0.0403742 0.0321254 0.0407672 -0.038565 -0.0411708 -0.0376286 -0.0495864 -0.0329638 -0.0358964
internal_weight=1554.84 1134.29 420.548 389.604 368.147 1111.23 50.5271 1060.71 30.9444 23.0588 23.0609 2.91793 21.4568 20.143
internal_count=7265 1812 5453 4000 1769 549 252 297 1453 671 1263 104 2231 1159
is_linear=0
shrinkage=0.03


Tree=40
num_leaves=15
num_cat=0
split_feature=69 34 57 6 10 87 65 41 41 46 145 71 144 131
split_gain=70.0959 186.695 103.046 64.0866 44.9809 33.303 16.0804 0.865638 0.604618 0.558115 0.507586 0.407663 0.279482 0.104027
threshold=90037.535000000018 1.3450000000000004 19554.196930000002 -0.24499999999999997 -0.53499999999999992 365307.09000000003 1.3250000000000004 6375.0512780000008 9186.8278845000023 373360.50000000006 2.5000000000000004 -0.77499999999999991 0.98437500000000011 2.3550000000000004
decision_type=2 2 2 2 2 2 2 2 2 2 2 2 2 2
left_child=2 8 4 6 9 -6 -3 -4 10 -1 -2 -9 -5 -10
right_child=1 3 7 12 5 -7 -8 11 13 -11 -12 -13 -14 -15
leaf_value=-0.057365677721316538 -0.041493822103950882 -0.037734118739701721 -0.071976065960512065 -0.035629342842013405 0.039196122936511077 0.0099235064517094584 0.039292960429321809 -0.069402875569208142 -0.031830299152684254 -0.038315226514437174 -0.030461319374020204 -0.032619908354202524 -0.067463048922326643 -0.047670051766764053
leaf_weight=2.5156369113828978 16.598085230914879 2.4784851686563334 0.5340779446996774 10.90035486547276 1254.6239806066733 35.981809774180874 154.02690929407254 0.27553388872184115 23.784550939453769 3.0769519812893122 4.849891322432085 17.144432524917647 0.25399526022374708 0.37910647946409781
leaf_count=44 408 90 7 693 858 416 166 7 2392 125 570 1466 2 21
internal_value=0.0344344 0.0184814 0.0370234 0.0331215 0.0380121 0.03838 0.0380731 -0.0343551 -0.0353329 -0.0468844 -0.0389991 -0.0332017 -0.0363542 -0.0320788
internal_weight=1527.42 213.271 1314.15 167.66 1296.2 1290.61 156.505 17.954 45.6116 5.59259 21.448 17.42 11.1544 24.1637
internal_count=7265 4342 2923 951 1443 1274 256 1480 3391 169 978 1473 695 2413
is_linear=0
shrinkage=0.03


Tree=41
num_leaves=15
num_cat=0
split_feature=81 148 148 145 79 119 159 47 145 17 145 46 145 150
split_gain=68.8258 143.552 137.325 91.1505 58.525 3.61565 35.201 4.53401 0.612054 0.919876 0.449835 0.576221 0.368901 0.0238436
threshold=1.0750000000000004 0.47500000000000003 0.45500000000000007 1.5000000000000002 0.31500000000000006 0.45374750000000003 0.31500000000000006 1.5000000000000002 2.5000000000000004 1.0000000180025095e-35 2.5000000000000004 171119.00000000003 2.5000000000000004 0.87500000000000011
decision_type=2 2 2 2 2 2 2 2 2 2 2 2 2 2
left_child=1 10 3 4 -2 6 -3 -7 9 -4 11 -1 -5 -10
right_child=2 5 8 12 -6 7 -8 -9 13 -11 -12 -13 -14 -15
leaf_value=-0.054953370265875524 0.034035053750507409 0.040862972036777696 -0.044775816340167245 -0.041514803563895281 -0.038486295856486982 -0.032482297887099484 -0.037828432601010632 0.039939778608100766 -0.038715643329228271 -0.031488419075998642 -0.030684774844269139 -0.037900761188628534 -0.031080005042806551 -0.030585114323616863
leaf_weight=2.0470941425301161 346.43813846958801 43.192171096801758 15.708621686324483 3.721560851205143 10.313171247486023 0.77859911392442782 5.8035874012857667 1021.0126542963553 0.33984805038198729 6.6844902641605577 6.413864142028614 13.84510247572325 16.877132134512067 7.2453558798879385
leaf_count=42 1281 2 238 102 488 57 250 240 16 433 709 512 2129 766
internal_value=0.0340115 0.0379337 0.0234859 0.0283956 0.0319386 0.0395029 0.0315419 0.0398846 -0.0383146 -0.0408094 -0.0373909 -0.0400973 -0.0329653 -0.0309494
internal_weight=1500.42 1093.09 407.328 377.35 356.751 1070.79 48.9958 1021.79 29.9783 22.3931 22.3061 15.8922 20.5987 7.5852
internal_count=7265 1812 5453 4000 1769 549 252 297 1453 671 1263 554 2231 782
is_linear=0
shrinkage=0.03


Tree=42
num_leaves=15
num_cat=0
split_feature=81 148 148 145 27 92 35 101 145 17 145 46 23 150
split_gain=67.2888 137.816 131.453 87.0898 55.9407 3.61813 31.7651 6.00596 0.562416 0.841403 0.415693 0.516901 0.346685 0.0218938
threshold=1.0750000000000004 0.47500000000000003 0.45500000000000007 1.5000000000000002 43.500000000000007 520771.93500000006 199999.50000000003 10.500000000000002 2.5000000000000004 1.0000000180025095e-35 2.5000000000000004 171119.00000000003 0.12310606050000002 0.87500000000000011
decision_type=2 2 2 2 2 2 2 2 2 2 2 2 2 2
left_child=1 10 3 4 -2 7 -7 -3 9 -4 11 -1 -5 -10
right_child=2 5 8 12 -6 6 -8 -9 13 -11 -12 -13 -14 -15
leaf_value=-0.053988317996748927 0.033537268321626346 -0.055742119280381086 -0.044326220912937593 -0.032304634680268458 -0.035899664498944224 -0.040787633991466309 0.038121117427861229 0.039606732693946295 -0.038451456651497164 -0.031450584716734523 -0.030666115093695559 -0.037722158435649245 -0.058723213597605385 -0.030568241523181463
leaf_weight=2.0215633995831039 341.14838628657162 0.59491831273771723 15.396639842540031 19.566420046845455 10.771842242451383 4.9492839255835852 63.490817317506298 981.07165182102472 0.33203572896309097 6.4946197674144051 6.2280361047014585 13.498573906254022 0.45750615675933559 7.0350458028260618
leaf_count=42 1172 16 238 2200 597 199 96 238 16 433 709 512 31 766
internal_value=0.0336131 0.0375359 0.0231329 0.0279492 0.0314119 0.039084 0.0324148 0.0395489 -0.0380934 -0.0405063 -0.0372135 -0.0398409 -0.0329082 -0.0309235
internal_weight=1473.06 1071.85 401.202 371.944 351.92 1050.11 68.4401 981.667 29.2583 21.8913 21.7482 15.5201 20.0239 7.36708
internal_count=7265 1812 5453 4000 1769 549 295 254 1453 671 1263 554 2231 782
is_linear=0
shrinkage=0.03


Tree=43
num_leaves=15
num_cat=0
split_feature=81 148 148 145 20 74 23 100 145 17 145 46 23 150
split_gain=65.7981 132.346 125.865 83.2409 55.8154 3.63599 19.0359 5.86321 0.516769 0.769658 0.383962 0.463408 0.325396 0.0200963
threshold=1.0750000000000004 0.47500000000000003 0.45500000000000007 1.5000000000000002 -0.49499999999999994 199999.45000000004 0.11715686300000001 -0.38499999999999995 2.5000000000000004 1.0000000180025095e-35 2.5000000000000004 171119.00000000003 0.12310606050000002 0.87500000000000011
decision_type=2 2 2 2 2 2 2 2 2 2 2 2 2 2
left_child=1 10 3 4 -2 7 -7 -3 9 -4 11 -1 -5 -10
right_child=2 5 8 12 -6 6 -8 -9 13 -11 -12 -13 -14 -15
leaf_value=-0.053060240351861368 0.032963207751089033 -0.030522158630195792 -0.043891152339371908 -0.032264758995720566 -0.039319917145744496 -0.036345376535118684 0.038693740125164286 0.039024245969569292 -0.038194451307301702 -0.031413609428472711 -0.030647936102996574 -0.037546233517440845 -0.058116188439897125 -0.030551846330194091
leaf_weight=1.9956088014878357 337.16763746109791 1.0921951392665494 15.08746346365661 19.011259631952274 9.8966113696806115 3.612129382556307 19.295928955078125 1005.5562825249508 0.32435799785889585 6.309981526574119 6.047500815242528 13.160084597766398 0.44855312560684879 6.8307372094132006
leaf_count=42 1270 103 238 2200 499 189 1 256 16 433 709 512 31 766
internal_value=0.0332277 0.0371519 0.0227906 0.0275167 0.030902 0.0386798 0.0268616 0.0389488 -0.0378777 -0.0402116 -0.0370389 -0.039589 -0.0328606 -0.0308983
internal_weight=1445.84 1050.76 395.077 366.524 347.064 1029.56 22.9081 1006.65 28.5525 21.3974 21.2032 15.1557 19.4598 7.1551
internal_count=7265 1812 5453 4000 1769 549 190 359 1453 671 1263 554 2231 782
is_linear=0
shrinkage=0.03


Tree=44
num_leaves=15
num_cat=0
split_feature=81 148 148 145 79 119 159 47 145 17 145 46 23 150
split_gain=64.4673 127.136 120.506 79.5568 55.8213 3.63545 33.4833 4.37771 0.474796 0.704061 0.354497 0.415242 0.304423 0.0184405
threshold=1.0750000000000004 0.47500000000000003 0.45500000000000007 1.5000000000000002 0.31500000000000006 0.45374750000000003 0.31500000000000006 1.5000000000000002 2.5000000000000004 1.0000000180025095e-35 2.5000000000000004 171119.00000000003 0.12310606050000002 0.87500000000000011
decision_type=2 2 2 2 2 2 2 2 2 2 2 2 2 2
left_child=1 10 3 4 -2 6 -3 -7 9 -4 11 -1 -5 -10
right_child=2 5 8 12 -6 7 -8 -9 13 -11 -12 -13 -14 -15
leaf_value=-0.052168570982768427 0.032524457021730457 0.039640313364630204 -0.043470073740413 -0.032225146429602551 -0.038518847642832296 -0.032658626481856246 -0.037868728373645917 0.038744778971492762 -0.037944552337569076 -0.03137747586541003 -0.030630226043662476 -0.037373008615295758 -0.057471181176117783 -0.03053591550280085
leaf_weight=1.9692266049096385 332.0754082002677 40.729106903076172 14.781239864183595 18.471730030374605 10.261558613739906 0.77339386125095089 5.7206452013924709 961.87393574556336 0.3168134787119915 6.13043881766498 5.8721122734714291 12.829447721596805 0.44010875560343166 6.6322646136395633
leaf_count=42 1281 2 238 2200 488 57 250 240 16 433 709 512 31 766
internal_value=0.0328524 0.0367832 0.0224495 0.0270859 0.0303949 0.0382919 0.0300945 0.0386874 -0.0376674 -0.039925 -0.0368671 -0.0393418 -0.0328127 -0.0308737
internal_weight=1418.88 1029.77 389.11 361.249 342.337 1009.1 46.4498 962.647 27.8608 20.9117 20.6708 14.7987 18.9118 6.94908
internal_count=7265 1812 5453 4000 1769 549 252 297 1453 671 1263 554 2231 782
is_linear=0
shrinkage=0.03


Tree=45
num_leaves=15
num_cat=0
split_feature=16 58 127 25 104 125 35 6 145 17 12 41 57 33
split_gain=63.3697 137.231 103.39 69.589 32.6719 30.6182 14.4966 0.426632 0.242973 0.357225 0.229781 0.176031 0.119257 0.031228
threshold=380751.65000000008 621378.01000000013 100000.03500000002 617591.45000000007 -0.16499999999999998 8036934.4600000009 199999.50000000003 1.5050000000000001 2.5000000000000004 1.0000000180025095e-35 310681.50000000006 2686.3085015000001 25587.488870000005 0.76000000000000012
decision_type=2 2 2 2 2 2 2 2 2 2 2 2 2 2
left_child=2 8 3 4 -1 6 -3 11 9 -2 -9 -4 -5 -7
right_child=1 5 7 12 -6 13 -8 10 -10 -11 -12 -13 -14 -15
leaf_value=-0.031903521278038569 -0.038136222049246542 -0.033321223625328841 -0.042021624705025344 -0.036270465111816294 0.03682336294350521 -0.030843333646531235 0.037036297123480978 -0.056887042573056955 -0.030208873803819519 -0.030626087455713276 -0.03092647197318019 -0.033579168413507707 -0.030463143804595312 -0.036068540197548453
leaf_weight=6.2575793450232586 23.280460022971969 2.7081033892463884 2.6498812595382395 7.0970841825474036 1208.7437370701227 5.2498755510896435 98.524731360841542 1.2953531853854645 7.2948537063784888 7.5483864941634229 0.40210495819337655 13.790362321422434 5.7700037423055619 1.2804620561655609
leaf_count=402 418 297 73 302 743 683 174 13 1382 816 36 1165 682 79
internal_value=0.0324938 0.0137865 0.0346841 0.0357344 0.0364694 0.0310927 0.0351541 -0.0364184 -0.0351324 -0.0362974 -0.0507373 -0.0349399 -0.0336663 -0.0318679
internal_weight=1391.89 145.887 1246.01 1227.87 1215 107.763 101.233 18.1377 38.1237 30.8288 1.69746 16.4402 12.8671 6.53034
internal_count=7265 3849 3416 2129 1145 1233 471 1287 2616 1234 49 1238 984 762
is_linear=0
shrinkage=0.03


Tree=46
num_leaves=15
num_cat=0
split_feature=81 148 148 145 20 92 35 101 145 17 145 46 23 150
split_gain=62.1839 120.211 113.238 74.4345 52.3407 3.57693 29.8936 5.76976 0.44165 0.651007 0.331256 0.394705 0.306653 0.015525
threshold=1.0750000000000004 0.47500000000000003 0.45500000000000007 1.5000000000000002 -0.49499999999999994 520771.93500000006 199999.50000000003 10.500000000000002 2.5000000000000004 1.0000000180025095e-35 2.5000000000000004 171119.00000000003 0.12310606050000002 0.87500000000000011
decision_type=2 2 2 2 2 2 2 2 2 2 2 2 2 2
left_child=1 10 3 4 -2 7 -7 -3 9 -4 11 -1 -5 -10
right_child=2 5 8 12 -6 6 -8 -9 13 -11 -12 -13 -14 -15
leaf_value=-0.051813705892691651 0.031641468350489393 -0.057068348098477432 -0.043201520966879695 -0.032215914855032057 -0.039400304147015938 -0.04091139269652623 0.036632587370072772 0.03814278011142691 -0.037454203907691802 -0.031369652705218985 -0.030617306602646038 -0.037228192719007472 -0.058006453816068101 -0.03053242676592274
leaf_weight=1.9300809836713622 321.49033468088601 0.57319146557710965 14.302872957661753 17.723690044949766 9.6128049525432271 4.8438692744821301 58.642510366626084 904.81698592682369 0.30558621021918853 5.9165181668940923 5.6520834309048942 12.383802992408162 0.4248707452788939 6.387343849753961
leaf_count=42 1270 16 238 2200 499 199 96 238 16 433 709 512 31 766
internal_value=0.032149 0.0360983 0.0217673 0.0263364 0.0295789 0.0375998 0.0307162 0.0380825 -0.0375282 -0.0397393 -0.0367667 -0.0391949 -0.0328197 -0.0308485
internal_weight=1365.01 988.843 376.164 349.252 331.103 968.877 63.4864 905.39 26.9123 20.2194 19.966 14.3139 18.1486 6.69293
internal_count=7265 1812 5453 4000 1769 549 295 254 1453 671 1263 554 2231 782
is_linear=0
shrinkage=0.03


Tree=47
num_leaves=15
num_cat=0
split_feature=81 148 148 145 27 119 159 100 145 17 145 46 23 150
split_gain=61.1142 115.601 108.462 71.1795 52.2224 3.56414 31.4962 4.16933 0.406008 0.596024 0.305638 0.35366 0.285095 0.0142365
threshold=1.0750000000000004 0.47500000000000003 0.45500000000000007 1.5000000000000002 43.500000000000007 0.45374750000000003 0.31500000000000006 -0.38499999999999995 2.5000000000000004 1.0000000180025095e-35 2.5000000000000004 171119.00000000003 0.12310606050000002 0.87500000000000011
decision_type=2 2 2 2 2 2 2 2 2 2 2 2 2 2
left_child=1 10 3 4 -2 6 -3 -7 9 -4 11 -1 -5 -10
right_child=2 5 8 12 -6 7 -8 -9 13 -11 -12 -13 -14 -15
leaf_value=-0.050973787434074727 0.031309995454585987 0.038597114540228239 -0.042806995849663895 -0.032176973836973675 -0.036087312845436779 -0.030436899783673574 -0.037784517646424431 0.03772604198112977 -0.037226151710090291 -0.031334345344449364 -0.030600270335809383 -0.037060174147416781 -0.05726400795622888 -0.030517020576780809
leaf_weight=1.9034314780728916 315.80450365249999 38.309322357177734 14.006146235391503 17.220378595055085 10.697492770384995 0.80835081916302343 5.5644723030272862 903.99863966275007 0.29834403982385893 5.7480308040976515 5.4880468270275733 12.071469696587881 0.41757940337993105 6.2016514216084033
leaf_count=42 1172 2 238 2200 597 85 250 212 16 433 709 512 31 766
internal_value=0.0318104 0.0357754 0.0214467 0.0259307 0.0291018 0.0372602 0.0289097 0.0376651 -0.0373287 -0.0394687 -0.0365994 -0.0389553 -0.0327709 -0.030825
internal_weight=1338.54 968.144 370.394 344.14 326.502 948.681 43.8738 904.807 26.2542 19.7542 19.4629 13.9749 17.638 6.5
internal_count=7265 1812 5453 4000 1769 549 252 297 1453 671 1263 554 2231 782
is_linear=0
shrinkage=0.03


Tree=48
num_leaves=15
num_cat=0
split_feature=81 148 148 79 20 92 35 101 140 145 17 145 46 150
split_gain=60.1001 111.214 103.918 68.5765 51.5162 3.52671 28.5464 5.60355 0.478839 0.373212 0.545696 0.281894 0.316789 0.0130516
threshold=1.0750000000000004 0.47500000000000003 0.45500000000000007 0.31500000000000006 -0.49499999999999994 520771.93500000006 199999.50000000003 10.500000000000002 1.135 2.5000000000000004 1.0000000180025095e-35 2.5000000000000004 171119.00000000003 0.87500000000000011
decision_type=2 2 2 2 2 2 2 2 2 2 2 2 2 2
left_child=1 11 3 4 -2 7 -7 -3 -5 10 -4 12 -1 -11
right_child=2 5 9 8 -6 6 -8 -9 -10 13 -12 -13 -14 -15
leaf_value=-0.050168076680971514 0.030618342733213899 -0.057057336602641943 -0.042424794957794248 -0.035398381758734283 -0.037442086009199203 -0.040886382441344994 0.035909875522909272 0.037491085016768698 -0.054088729773639592 -0.037004696374736919 -0.03129985437447718 -0.030583681242888176 -0.036894910819915777 -0.030502052637640949
leaf_weight=1.8763910409761617 313.62183338252362 0.56452039582654734 13.712798118009237 13.684217731934039 10.339108807733281 4.7215491137467316 56.307716753100976 866.92892244039103 1.3559028962627042 0.29123312002047796 5.5842050582868969 5.3286958520766339 11.766386495321056 6.0212737096007913
leaf_count=42 2051 16 238 1092 813 199 96 238 44 16 433 709 512 766
internal_value=0.0314871 0.03547 0.0211369 0.0255389 0.0284462 0.0369392 0.0299685 0.0374296 -0.0370834 -0.0371341 -0.0392054 -0.036435 -0.0387205 -0.0308021
internal_weight=1312.1 947.494 364.611 339.001 323.961 928.523 61.0293 867.493 15.0401 25.6095 19.297 18.9715 13.6428 6.31251
internal_count=7265 1812 5453 4000 2864 549 295 254 1136 1453 671 1263 554 782
is_linear=0
shrinkage=0.03


Tree=49
num_leaves=15
num_cat=0
split_feature=81 148 148 30 90 145 74 23 14 145 17 145 46 150
split_gain=59.2916 107.011 99.5105 67.7087 63.4452 40.1498 3.65631 17.7211 6.85261 0.343037 0.499625 0.259902 0.283697 0.0119626
threshold=1.0750000000000004 0.47500000000000003 0.45500000000000007 0.42243750000000008 1.6300000000000001 1.5000000000000002 199999.45000000004 0.11715686300000001 351.00000000000006 2.5000000000000004 1.0000000180025095e-35 2.5000000000000004 171119.00000000003 0.87500000000000011
decision_type=2 2 2 2 2 2 2 2 2 2 2 2 2 2
left_child=1 11 3 5 -5 -2 8 -8 -3 10 -4 12 -1 -11
right_child=2 6 9 4 -6 -7 7 -9 -10 13 -12 -13 -14 -15
leaf_value=-0.049395514933513018 0.032554667532051926 -0.038944224269048804 -0.042054482636316837 -0.034974826848918263 0.037178026760504489 -0.033644626811162232 -0.036489376401927051 0.036943877510153204 0.037006612800365685 -0.036789712710653268 -0.031266163712931776 -0.030567527827973871 -0.036732412107627191 -0.030487510950926028
leaf_weight=1.8489818427478919 278.69348115578759 1.0704269660636772 13.42292915389408 29.598857730394229 17.425314272055402 8.4969455697573704 3.5847899087239083 16.906644821166992 887.10562200355344 0.28425245918333431 5.4249182640342033 5.1739006033167234 11.468390056048518 5.8460632706992328
leaf_count=42 756 34 238 2152 7 1085 189 1 325 16 433 709 512 766
internal_value=0.0311632 0.0351721 0.0208153 0.0251321 -0.00823781 0.0305961 0.036626 0.0240974 0.0369151 -0.0369443 -0.0389493 -0.0362737 -0.0384906 -0.0307797
internal_weight=1286.35 927.159 359.193 334.215 47.0242 287.19 908.667 20.4914 888.176 24.9782 18.8478 18.4913 13.3174 6.13032
internal_count=7265 1812 5453 4000 2159 1841 549 190 359 1453 671 1263 554 782
is_linear=0
shrinkage=0.03


Tree=50
num_leaves=15
num_cat=0
split_feature=81 148 148 30 149 145 119 159 47 145 17 145 46 150
split_gain=57.8426 102.987 95.5453 64.5423 61.2845 38.4383 3.6238 30.1751 4.22429 0.315275 0.457448 0.239545 0.254018 0.0109622
threshold=1.0750000000000004 0.47500000000000003 0.45500000000000007 0.42243750000000008 1.1950000000000001 1.5000000000000002 0.45374750000000003 0.31500000000000006 1.5000000000000002 2.5000000000000004 1.0000000180025095e-35 2.5000000000000004 171119.00000000003 0.87500000000000011
decision_type=2 2 2 2 2 2 2 2 2 2 2 2 2 2
left_child=1 11 3 5 -5 -2 7 -3 -8 10 -4 12 -1 -11
right_child=2 6 9 4 -6 -7 8 -9 -10 13 -12 -13 -14 -15
leaf_value=-0.048654981392901246 0.032096461664508726 0.037678351703959105 -0.041695639499614398 -0.034878249528419961 0.036908069656679539 -0.033603415343448177 -0.032984677579902089 -0.037797320985987697 0.036810407773594622 -0.036581070548631106 -0.031233257618905736 -0.030551800019388974 -0.036572685369508889 -0.030473383606878096
leaf_weight=1.8212305037304783 274.25939560565166 35.902166366577148 13.136630909633828 28.802650388795882 17.032339659985155 8.2557841300731507 0.78117173863574763 5.4973188352305433 846.8807608182542 0.27740108850411971 5.2700506802648297 5.0235345248365766 11.177321590366772 5.6758764359401539
leaf_count=42 756 2 238 2153 6 1085 57 250 240 16 433 709 512 766
internal_value=0.0308751 0.0348836 0.0205663 0.0248192 -0.00820236 0.0301766 0.0363228 0.0276562 0.0367461 -0.0367592 -0.0387001 -0.0361154 -0.0382655 -0.030758
internal_weight=1259.79 907.084 352.71 328.35 45.835 282.515 889.061 41.3995 847.662 24.36 18.4067 18.0221 12.9986 5.95328
internal_count=7265 1812 5453 4000 2159 1841 549 252 297 1453 671 1263 554 782
is_linear=0
shrinkage=0.03


Tree=51
num_leaves=15
num_cat=0
split_feature=81 148 148 79 162 92 35 101 140 145 17 145 46 150
split_gain=56.5358 99.1584 91.7422 63.0254 49.1849 3.59616 27.5732 5.42999 0.374461 0.289735 0.418835 0.220711 0.227417 0.0100433
threshold=1.0750000000000004 0.47500000000000003 0.45500000000000007 0.31500000000000006 0.74500000000000011 520771.93500000006 199999.50000000003 10.500000000000002 1.135 2.5000000000000004 1.0000000180025095e-35 2.5000000000000004 171119.00000000003 0.87500000000000011
decision_type=2 2 2 2 2 2 2 2 2 2 2 2 2 2
left_child=1 11 3 4 -2 7 -7 -3 -5 10 -4 12 -1 -11
right_child=2 5 9 8 -6 6 -8 -9 -10 13 -12 -13 -14 -15
leaf_value=-0.047945318148507103 -0.035774972174223429 -0.05775578566965045 -0.041347866810925296 -0.03545481038462437 0.029642894183134507 -0.040958633848859539 0.03497528397799398 0.036615167819509006 -0.052263298188192565 -0.036378630727702532 -0.03120112103835905 -0.030536487256290417 -0.03641573571228416 -0.03045965900729217
leaf_weight=1.7931671930709878 10.716376439435406 0.54910923657007416 12.853986777714459 13.015347986132836 297.54702246782836 4.6856513917446128 52.8206411160063 811.44681618176401 1.3132242511492211 0.27067805896513064 5.119485418428666 4.8774744670372447 10.893026880687101 5.5105733964592218
leaf_count=42 766 16 238 1092 2098 199 96 238 44 16 433 709 512 766
internal_value=0.030599 0.0346124 0.02032 0.0245099 0.0273687 0.0360379 0.0287881 0.0365513 -0.0369953 -0.0365786 -0.0384577 -0.0359602 -0.0380454 -0.0307368
internal_weight=1233.41 887.066 346.347 322.592 308.263 869.502 57.5063 811.996 14.3286 23.7547 17.9735 17.5637 12.6862 5.78125
internal_count=7265 1812 5453 4000 2864 549 295 254 1136 1453 671 1263 554 782
is_linear=0
shrinkage=0.03


Tree=52
num_leaves=15
num_cat=0
split_feature=81 148 30 137 90 129 74 23 14 57 100 145 46 31
split_gain=55.8454 95.4824 88.7291 77.1224 66.5736 31.2371 3.67821 17.0845 6.54327 0.374444 0.226602 0.203297 0.203587 0.00265805
threshold=1.0750000000000004 0.47500000000000003 0.42243750000000008 0.45500000000000007 1.6300000000000001 1.2750000000000001 199999.45000000004 0.11715686300000001 351.00000000000006 24846.618850000003 4.3150000000000004 2.5000000000000004 171119.00000000003 -0.96999999999999986
decision_type=2 2 2 2 2 2 2 2 2 2 2 2 2 2
left_child=1 11 3 5 9 -2 8 -8 -3 -4 -5 12 -1 -13
right_child=2 6 4 10 -6 -7 7 -9 -10 -11 -12 13 -14 -15
leaf_value=-0.047265350946129575 0.03218525662450826 -0.038851972464415359 -0.037333482509188977 -0.035317404971087762 0.036453007004123419 -0.039343985310214186 -0.036505790970874086 0.036228468357847619 0.036154419099452433 -0.030830991547866688 -0.063666250097795224 -0.034570245618066452 -0.036261564464553621 -0.030396806801192191
leaf_weight=1.764824637677523 262.79564351041336 1.0480673540150736 28.583583120489493 16.442287896759812 16.332712856819853 5.6120683465851462 3.5632084679091358 15.769638061523438 829.90873008826748 11.051909128203986 0.2577451579272737 0.14157926524058062 10.615356196067294 4.5940211481647548
leaf_count=42 1216 34 1361 1054 7 252 189 1 325 1560 3 5 512 704
internal_value=0.0303027 0.0343467 0.0200183 0.0267977 -0.014517 0.0306897 0.0357589 0.0228229 0.0360598 -0.0355203 -0.0357549 -0.035808 -0.0378302 -0.0305216
internal_weight=1208.48 867.405 341.076 285.108 55.9682 268.408 850.29 19.3328 830.957 39.6355 16.7 17.1158 12.3802 4.7356
internal_count=7265 1812 5453 2525 2928 1468 549 190 359 2921 1057 1263 554 709
is_linear=0
shrinkage=0.03


Tree=53
num_leaves=15
num_cat=0
split_feature=16 58 127 43 125 104 35 6 17 145 41 12 57 33
split_gain=54.5382 112.672 85.4268 58.9103 25.383 25.3604 12.1249 0.244529 0.18313 0.290362 0.138411 0.12837 0.0831798 0.0274019
threshold=380751.65000000008 621378.01000000013 100000.03500000002 616476.00000000012 8036934.4600000009 -0.16499999999999998 199999.50000000003 1.5050000000000001 1.0000000180025095e-35 2.5000000000000004 2686.3085015000001 310681.50000000006 25587.488870000005 0.76000000000000012
decision_type=2 2 2 2 2 2 2 2 2 2 2 2 2 2
left_child=2 8 3 5 6 -1 -3 10 9 -2 -4 -9 -5 -6
right_child=1 4 7 12 13 -7 -8 11 -10 -11 -12 -13 -14 -15
leaf_value=-0.031622093188179684 -0.037635391313218421 -0.033405072434354505 -0.040983206020674595 -0.035466525870461361 -0.030714045162426967 0.034440270298393375 0.034789644036684921 -0.051536172775959156 -0.030555300521960989 -0.030181717837102544 -0.033300442764670271 -0.030704018814145764 -0.030411612129263139 -0.035832942873270122
leaf_weight=5.2567435090895733 21.401592608541254 2.4143339471193022 2.5522164893336621 6.5219341883202997 4.6635022307746103 1023.1778465923853 83.517169722355902 1.2383180432952929 6.9821063827257595 6.0287271105917162 12.19296698621474 0.33912313624750812 5.3192791785113513 1.1791471972828729
leaf_count=367 418 297 73 310 683 708 174 13 829 1369 1165 36 744 79
internal_value=0.0300418 0.0114009 0.032268 0.0333366 0.0287597 0.0341026 0.0328736 -0.0358312 -0.0348931 -0.0359972 -0.0346302 -0.0470576 -0.0331958 -0.0317471
internal_weight=1182.79 126.187 1056.6 1040.28 91.7742 1028.43 85.9315 16.3226 34.4124 27.4303 14.7452 1.57744 11.8412 5.84265
internal_count=7265 3849 3416 2129 1233 1075 471 1287 2616 1787 1238 49 1054 762
is_linear=0
shrinkage=0.03


Tree=54
num_leaves=15
num_cat=0
split_feature=81 148 30 137 149 145 119 159 47 57 100 145 1 31
split_gain=53.7724 90.7025 83.3386 72.4302 62.7568 30.8132 3.69657 28.5263 4.04468 0.348674 0.214208 0.1905 0.196773 0.00217319
threshold=1.0750000000000004 0.47500000000000003 0.42243750000000008 0.45500000000000007 1.1950000000000001 1.5000000000000002 0.45374750000000003 0.31500000000000006 1.5000000000000002 24846.618850000003 4.3150000000000004 2.5000000000000004 229033.25000000003 -0.96999999999999986
decision_type=2 2 2 2 2 2 2 2 2 2 2 2 2 2
left_child=1 11 3 5 9 -2 7 -3 -8 -4 -5 12 -1 -13
right_child=2 6 4 10 -6 -7 8 -9 -10 -11 -12 13 -14 -15
leaf_value=-0.044398455262116755 0.031685976215632981 0.036643264457719468 -0.037221871320613657 -0.03521604993311208 0.036001654842471836 -0.034337479884477128 -0.033077619693470915 -0.037833285125604285 0.035770664780439936 -0.030797092371523102 -0.062806186391283325 -0.034268010078696766 -0.035503248483405546 -0.030396235109463873
